#mdl#2#4870
#rdr#13/0/0
1:*,
19:u:tok:1:-2:%X[-2,0],
19:u:tok:1:-1:%X[-1,0],
18:u:tok:1:+0:%X[0,0],
18:u:tok:1:+1:%X[1,0],
18:u:tok:1:+2:%X[2,0],
27:u:tok:2:-1:%X[-1,0]/%X[0,0],
26:u:tok:2:+0:%X[0,0]/%X[1,0],
36:u:tok:3:-2:%X[-2,0]/%X[-1,0]/%X[0,0],
35:u:tok:3:-1:%X[-1,0]/%X[0,0]/%X[1,0],
34:u:tok:3:+0:%X[0,0]/%X[1,0]/%X[2,0],
28:u:pre:1:+0:2:%M[0,0,"^.?.?"],
28:u:suf:1:+0:2:%M[0,0,".?.?$"],
#qrk#23
1:O,
11:B-Variation,
6:B-Gene,
6:I-Gene,
12:B-Regulation,
12:I-Regulation,
34:B-Molecular_Physiological_Activity,
21:B-Negative_Regulation,
9:B-Protein,
8:B-Enzyme,
9:I-Protein,
34:I-Molecular_Physiological_Activity,
21:B-Positive_Regulation,
8:I-Enzyme,
13:B-Interaction,
29:B-Cell_Physiological_Activity,
21:I-Negative_Regulation,
9:B-Pathway,
11:I-Variation,
9:I-Pathway,
13:I-Interaction,
29:I-Cell_Physiological_Activity,
5:B-Neg,
#qrk#63233
1:*,
15:u:tok:1:-2:_x-2,
15:u:tok:1:-1:_x-1,
13:u:tok:1:+0:in,
12:u:tok:1:+1:2,
15:u:tok:1:+2:sibs,
18:u:tok:2:-1:_x-1/in,
15:u:tok:2:+0:in/2,
23:u:tok:3:-2:_x-2/_x-1/in,
20:u:tok:3:-1:_x-1/in/2,
20:u:tok:3:+0:in/2/sibs,
15:u:pre:1:+0:2:in,
15:u:suf:1:+0:2:in,
15:u:tok:1:-2:_x-1,
13:u:tok:1:-1:in,
12:u:tok:1:+0:2,
15:u:tok:1:+1:sibs,
15:u:tok:1:+2:with,
15:u:tok:2:-1:in/2,
17:u:tok:2:+0:2/sibs,
20:u:tok:3:-2:_x-1/in/2,
20:u:tok:3:-1:in/2/sibs,
22:u:tok:3:+0:2/sibs/with,
14:u:pre:1:+0:2:2,
14:u:suf:1:+0:2:2,
13:u:tok:1:-2:in,
12:u:tok:1:-1:2,
15:u:tok:1:+0:sibs,
15:u:tok:1:+1:with,
12:u:tok:1:+2:a,
17:u:tok:2:-1:2/sibs,
20:u:tok:2:+0:sibs/with,
20:u:tok:3:-2:in/2/sibs,
22:u:tok:3:-1:2/sibs/with,
22:u:tok:3:+0:sibs/with/a,
15:u:pre:1:+0:2:si,
15:u:suf:1:+0:2:bs,
12:u:tok:1:-2:2,
15:u:tok:1:-1:sibs,
15:u:tok:1:+0:with,
12:u:tok:1:+1:a,
15:u:tok:1:+2:mild,
20:u:tok:2:-1:sibs/with,
17:u:tok:2:+0:with/a,
22:u:tok:3:-2:2/sibs/with,
22:u:tok:3:-1:sibs/with/a,
22:u:tok:3:+0:with/a/mild,
15:u:pre:1:+0:2:wi,
15:u:suf:1:+0:2:th,
15:u:tok:1:-2:sibs,
15:u:tok:1:-1:with,
12:u:tok:1:+0:a,
15:u:tok:1:+1:mild,
15:u:tok:1:+2:form,
17:u:tok:2:-1:with/a,
17:u:tok:2:+0:a/mild,
22:u:tok:3:-2:sibs/with/a,
22:u:tok:3:-1:with/a/mild,
22:u:tok:3:+0:a/mild/form,
14:u:pre:1:+0:2:a,
14:u:suf:1:+0:2:a,
15:u:tok:1:-2:with,
12:u:tok:1:-1:a,
15:u:tok:1:+0:mild,
15:u:tok:1:+1:form,
13:u:tok:1:+2:of,
17:u:tok:2:-1:a/mild,
20:u:tok:2:+0:mild/form,
22:u:tok:3:-2:with/a/mild,
22:u:tok:3:-1:a/mild/form,
23:u:tok:3:+0:mild/form/of,
15:u:pre:1:+0:2:mi,
15:u:suf:1:+0:2:ld,
12:u:tok:1:-2:a,
15:u:tok:1:-1:mild,
15:u:tok:1:+0:form,
13:u:tok:1:+1:of,
29:u:tok:1:+2:3-methylglutaconic,
20:u:tok:2:-1:mild/form,
18:u:tok:2:+0:form/of,
22:u:tok:3:-2:a/mild/form,
23:u:tok:3:-1:mild/form/of,
37:u:tok:3:+0:form/of/3-methylglutaconic,
15:u:pre:1:+0:2:fo,
15:u:suf:1:+0:2:rm,
15:u:tok:1:-2:mild,
15:u:tok:1:-1:form,
13:u:tok:1:+0:of,
29:u:tok:1:+1:3-methylglutaconic,
19:u:tok:1:+2:aciduria,
18:u:tok:2:-1:form/of,
32:u:tok:2:+0:of/3-methylglutaconic,
23:u:tok:3:-2:mild/form/of,
37:u:tok:3:-1:form/of/3-methylglutaconic,
41:u:tok:3:+0:of/3-methylglutaconic/aciduria,
15:u:pre:1:+0:2:of,
15:u:suf:1:+0:2:of,
15:u:tok:1:-2:form,
13:u:tok:1:-1:of,
29:u:tok:1:+0:3-methylglutaconic,
19:u:tok:1:+1:aciduria,
32:u:tok:2:-1:of/3-methylglutaconic,
38:u:tok:2:+0:3-methylglutaconic/aciduria,
37:u:tok:3:-2:form/of/3-methylglutaconic,
41:u:tok:3:-1:of/3-methylglutaconic/aciduria,
43:u:tok:3:+0:3-methylglutaconic/aciduria/with,
15:u:pre:1:+0:2:3-,
15:u:suf:1:+0:2:ic,
13:u:tok:1:-2:of,
29:u:tok:1:-1:3-methylglutaconic,
19:u:tok:1:+0:aciduria,
20:u:tok:1:+2:cataracts,
38:u:tok:2:-1:3-methylglutaconic/aciduria,
24:u:tok:2:+0:aciduria/with,
41:u:tok:3:-2:of/3-methylglutaconic/aciduria,
43:u:tok:3:-1:3-methylglutaconic/aciduria/with,
34:u:tok:3:+0:aciduria/with/cataracts,
15:u:pre:1:+0:2:ac,
15:u:suf:1:+0:2:ia,
29:u:tok:1:-2:3-methylglutaconic,
19:u:tok:1:-1:aciduria,
20:u:tok:1:+1:cataracts,
12:u:tok:1:+2:,,
24:u:tok:2:-1:aciduria/with,
25:u:tok:2:+0:with/cataracts,
43:u:tok:3:-2:3-methylglutaconic/aciduria/with,
34:u:tok:3:-1:aciduria/with/cataracts,
27:u:tok:3:+0:with/cataracts/,,
19:u:tok:1:-2:aciduria,
20:u:tok:1:+0:cataracts,
12:u:tok:1:+1:,,
21:u:tok:1:+2:neurologic,
25:u:tok:2:-1:with/cataracts,
22:u:tok:2:+0:cataracts/,,
34:u:tok:3:-2:aciduria/with/cataracts,
27:u:tok:3:-1:with/cataracts/,,
33:u:tok:3:+0:cataracts/,/neurologic,
15:u:pre:1:+0:2:ca,
15:u:suf:1:+0:2:ts,
20:u:tok:1:-1:cataracts,
12:u:tok:1:+0:,,
21:u:tok:1:+1:neurologic,
22:u:tok:1:+2:involvement,
22:u:tok:2:-1:cataracts/,,
23:u:tok:2:+0:,/neurologic,
27:u:tok:3:-2:with/cataracts/,,
33:u:tok:3:-1:cataracts/,/neurologic,
35:u:tok:3:+0:,/neurologic/involvement,
14:u:pre:1:+0:2:,,
14:u:suf:1:+0:2:,,
20:u:tok:1:-2:cataracts,
12:u:tok:1:-1:,,
21:u:tok:1:+0:neurologic,
22:u:tok:1:+1:involvement,
23:u:tok:2:-1:,/neurologic,
33:u:tok:2:+0:neurologic/involvement,
33:u:tok:3:-2:cataracts/,/neurologic,
35:u:tok:3:-1:,/neurologic/involvement,
35:u:tok:3:+0:neurologic/involvement/,,
15:u:pre:1:+0:2:ne,
12:u:tok:1:-2:,,
21:u:tok:1:-1:neurologic,
22:u:tok:1:+0:involvement,
14:u:tok:1:+2:and,
33:u:tok:2:-1:neurologic/involvement,
24:u:tok:2:+0:involvement/,,
35:u:tok:3:-2:,/neurologic/involvement,
35:u:tok:3:-1:neurologic/involvement/,,
28:u:tok:3:+0:involvement/,/and,
15:u:suf:1:+0:2:nt,
21:u:tok:1:-2:neurologic,
22:u:tok:1:-1:involvement,
14:u:tok:1:+1:and,
22:u:tok:1:+2:neutropenia,
24:u:tok:2:-1:involvement/,,
16:u:tok:2:+0:,/and,
35:u:tok:3:-2:neurologic/involvement/,,
28:u:tok:3:-1:involvement/,/and,
28:u:tok:3:+0:,/and/neutropenia,
22:u:tok:1:-2:involvement,
14:u:tok:1:+0:and,
22:u:tok:1:+1:neutropenia,
12:u:tok:1:+2:(,
16:u:tok:2:-1:,/and,
26:u:tok:2:+0:and/neutropenia,
28:u:tok:3:-2:involvement/,/and,
28:u:tok:3:-1:,/and/neutropenia,
28:u:tok:3:+0:and/neutropenia/(,
15:u:pre:1:+0:2:an,
15:u:suf:1:+0:2:nd,
14:u:tok:1:-1:and,
22:u:tok:1:+0:neutropenia,
12:u:tok:1:+1:(,
18:u:tok:1:+2:megcann,
26:u:tok:2:-1:and/neutropenia,
24:u:tok:2:+0:neutropenia/(,
28:u:tok:3:-2:,/and/neutropenia,
28:u:tok:3:-1:and/neutropenia/(,
32:u:tok:3:+0:neutropenia/(/megcann,
14:u:tok:1:-2:and,
22:u:tok:1:-1:neutropenia,
12:u:tok:1:+0:(,
18:u:tok:1:+1:megcann,
12:u:tok:1:+2:;,
24:u:tok:2:-1:neutropenia/(,
20:u:tok:2:+0:(/megcann,
28:u:tok:3:-2:and/neutropenia/(,
32:u:tok:3:-1:neutropenia/(/megcann,
22:u:tok:3:+0:(/megcann/;,
14:u:pre:1:+0:2:(,
14:u:suf:1:+0:2:(,
22:u:tok:1:-2:neutropenia,
12:u:tok:1:-1:(,
18:u:tok:1:+0:megcann,
12:u:tok:1:+1:;,
17:u:tok:1:+2:616271,
20:u:tok:2:-1:(/megcann,
20:u:tok:2:+0:megcann/;,
32:u:tok:3:-2:neutropenia/(/megcann,
22:u:tok:3:-1:(/megcann/;,
27:u:tok:3:+0:megcann/;/616271,
15:u:pre:1:+0:2:me,
15:u:suf:1:+0:2:nn,
12:u:tok:1:-2:(,
18:u:tok:1:-1:megcann,
12:u:tok:1:+0:;,
17:u:tok:1:+1:616271,
12:u:tok:1:+2:),
20:u:tok:2:-1:megcann/;,
19:u:tok:2:+0:;/616271,
22:u:tok:3:-2:(/megcann/;,
27:u:tok:3:-1:megcann/;/616271,
21:u:tok:3:+0:;/616271/),
14:u:pre:1:+0:2:;,
14:u:suf:1:+0:2:;,
18:u:tok:1:-2:megcann,
12:u:tok:1:-1:;,
17:u:tok:1:+0:616271,
12:u:tok:1:+1:),
19:u:tok:2:-1:;/616271,
19:u:tok:2:+0:616271/),
27:u:tok:3:-2:megcann/;/616271,
21:u:tok:3:-1:;/616271/),
23:u:tok:3:+0:616271/)/and,
15:u:pre:1:+0:2:61,
15:u:suf:1:+0:2:71,
12:u:tok:1:-2:;,
17:u:tok:1:-1:616271,
12:u:tok:1:+0:),
13:u:tok:1:+2:no,
19:u:tok:2:-1:616271/),
16:u:tok:2:+0:)/and,
21:u:tok:3:-2:;/616271/),
23:u:tok:3:-1:616271/)/and,
19:u:tok:3:+0:)/and/no,
14:u:pre:1:+0:2:),
14:u:suf:1:+0:2:),
17:u:tok:1:-2:616271,
12:u:tok:1:-1:),
13:u:tok:1:+1:no,
16:u:tok:2:-1:)/and,
17:u:tok:2:+0:and/no,
23:u:tok:3:-2:616271/)/and,
19:u:tok:3:-1:)/and/no,
28:u:tok:3:+0:and/no/neurologic,
12:u:tok:1:-2:),
13:u:tok:1:+0:no,
21:u:tok:1:+2:impairment,
17:u:tok:2:-1:and/no,
24:u:tok:2:+0:no/neurologic,
19:u:tok:3:-2:)/and/no,
28:u:tok:3:-1:and/no/neurologic,
35:u:tok:3:+0:no/neurologic/impairment,
15:u:pre:1:+0:2:no,
15:u:suf:1:+0:2:no,
13:u:tok:1:-1:no,
21:u:tok:1:+1:impairment,
24:u:tok:2:-1:no/neurologic,
32:u:tok:2:+0:neurologic/impairment,
28:u:tok:3:-2:and/no/neurologic,
35:u:tok:3:-1:no/neurologic/impairment,
34:u:tok:3:+0:neurologic/impairment/,,
13:u:tok:1:-2:no,
21:u:tok:1:+0:impairment,
19:u:tok:1:+2:wortmann,
32:u:tok:2:-1:neurologic/impairment,
23:u:tok:2:+0:impairment/,,
35:u:tok:3:-2:no/neurologic/impairment,
34:u:tok:3:-1:neurologic/impairment/,,
32:u:tok:3:+0:impairment/,/wortmann,
15:u:pre:1:+0:2:im,
21:u:tok:1:-1:impairment,
19:u:tok:1:+1:wortmann,
13:u:tok:1:+2:et,
23:u:tok:2:-1:impairment/,,
21:u:tok:2:+0:,/wortmann,
34:u:tok:3:-2:neurologic/impairment/,,
32:u:tok:3:-1:impairment/,/wortmann,
24:u:tok:3:+0:,/wortmann/et,
21:u:tok:1:-2:impairment,
19:u:tok:1:+0:wortmann,
13:u:tok:1:+1:et,
13:u:tok:1:+2:al,
21:u:tok:2:-1:,/wortmann,
22:u:tok:2:+0:wortmann/et,
32:u:tok:3:-2:impairment/,/wortmann,
24:u:tok:3:-1:,/wortmann/et,
25:u:tok:3:+0:wortmann/et/al,
15:u:pre:1:+0:2:wo,
19:u:tok:1:-1:wortmann,
13:u:tok:1:+0:et,
13:u:tok:1:+1:al,
12:u:tok:1:+2:.,
22:u:tok:2:-1:wortmann/et,
16:u:tok:2:+0:et/al,
24:u:tok:3:-2:,/wortmann/et,
25:u:tok:3:-1:wortmann/et/al,
18:u:tok:3:+0:et/al/.,
15:u:pre:1:+0:2:et,
15:u:suf:1:+0:2:et,
19:u:tok:1:-2:wortmann,
13:u:tok:1:-1:et,
13:u:tok:1:+0:al,
12:u:tok:1:+1:.,
15:u:tok:1:+2:_x+1,
16:u:tok:2:-1:et/al,
15:u:tok:2:+0:al/.,
25:u:tok:3:-2:wortmann/et/al,
18:u:tok:3:-1:et/al/.,
20:u:tok:3:+0:al/./_x+1,
15:u:pre:1:+0:2:al,
15:u:suf:1:+0:2:al,
13:u:tok:1:-2:et,
13:u:tok:1:-1:al,
12:u:tok:1:+0:.,
15:u:tok:1:+1:_x+1,
15:u:tok:1:+2:_x+2,
15:u:tok:2:-1:al/.,
17:u:tok:2:+0:./_x+1,
18:u:tok:3:-2:et/al/.,
20:u:tok:3:-1:al/./_x+1,
22:u:tok:3:+0:./_x+1/_x+2,
14:u:pre:1:+0:2:.,
14:u:suf:1:+0:2:.,
15:u:tok:1:+1:2015,
17:u:tok:2:-1:_x-1/(,
17:u:tok:2:+0:(/2015,
22:u:tok:3:-2:_x-2/_x-1/(,
22:u:tok:3:-1:_x-1/(/2015,
19:u:tok:3:+0:(/2015/),
15:u:tok:1:+0:2015,
21:u:tok:1:+2:identified,
17:u:tok:2:-1:(/2015,
17:u:tok:2:+0:2015/),
22:u:tok:3:-2:_x-1/(/2015,
19:u:tok:3:-1:(/2015/),
28:u:tok:3:+0:2015/)/identified,
15:u:pre:1:+0:2:20,
15:u:suf:1:+0:2:15,
15:u:tok:1:-1:2015,
21:u:tok:1:+1:identified,
19:u:tok:1:+2:compound,
17:u:tok:2:-1:2015/),
23:u:tok:2:+0:)/identified,
19:u:tok:3:-2:(/2015/),
28:u:tok:3:-1:2015/)/identified,
32:u:tok:3:+0:)/identified/compound,
15:u:tok:1:-2:2015,
21:u:tok:1:+0:identified,
19:u:tok:1:+1:compound,
23:u:tok:1:+2:heterozygous,
23:u:tok:2:-1:)/identified,
30:u:tok:2:+0:identified/compound,
28:u:tok:3:-2:2015/)/identified,
32:u:tok:3:-1:)/identified/compound,
43:u:tok:3:+0:identified/compound/heterozygous,
15:u:pre:1:+0:2:id,
15:u:suf:1:+0:2:ed,
21:u:tok:1:-1:identified,
19:u:tok:1:+0:compound,
23:u:tok:1:+1:heterozygous,
20:u:tok:1:+2:mutations,
30:u:tok:2:-1:identified/compound,
32:u:tok:2:+0:compound/heterozygous,
32:u:tok:3:-2:)/identified/compound,
43:u:tok:3:-1:identified/compound/heterozygous,
42:u:tok:3:+0:compound/heterozygous/mutations,
15:u:pre:1:+0:2:co,
21:u:tok:1:-2:identified,
19:u:tok:1:-1:compound,
23:u:tok:1:+0:heterozygous,
20:u:tok:1:+1:mutations,
13:u:tok:1:+2:in,
32:u:tok:2:-1:compound/heterozygous,
33:u:tok:2:+0:heterozygous/mutations,
43:u:tok:3:-2:identified/compound/heterozygous,
42:u:tok:3:-1:compound/heterozygous/mutations,
36:u:tok:3:+0:heterozygous/mutations/in,
15:u:pre:1:+0:2:he,
15:u:suf:1:+0:2:us,
19:u:tok:1:-2:compound,
23:u:tok:1:-1:heterozygous,
20:u:tok:1:+0:mutations,
13:u:tok:1:+1:in,
14:u:tok:1:+2:the,
33:u:tok:2:-1:heterozygous/mutations,
23:u:tok:2:+0:mutations/in,
42:u:tok:3:-2:compound/heterozygous/mutations,
36:u:tok:3:-1:heterozygous/mutations/in,
27:u:tok:3:+0:mutations/in/the,
15:u:pre:1:+0:2:mu,
15:u:suf:1:+0:2:ns,
23:u:tok:1:-2:heterozygous,
20:u:tok:1:-1:mutations,
14:u:tok:1:+1:the,
15:u:tok:1:+2:clpb,
23:u:tok:2:-1:mutations/in,
17:u:tok:2:+0:in/the,
36:u:tok:3:-2:heterozygous/mutations/in,
27:u:tok:3:-1:mutations/in/the,
22:u:tok:3:+0:in/the/clpb,
20:u:tok:1:-2:mutations,
14:u:tok:1:+0:the,
15:u:tok:1:+1:clpb,
15:u:tok:1:+2:gene,
17:u:tok:2:-1:in/the,
19:u:tok:2:+0:the/clpb,
27:u:tok:3:-2:mutations/in/the,
22:u:tok:3:-1:in/the/clpb,
24:u:tok:3:+0:the/clpb/gene,
15:u:pre:1:+0:2:th,
15:u:suf:1:+0:2:he,
14:u:tok:1:-1:the,
15:u:tok:1:+0:clpb,
15:u:tok:1:+1:gene,
12:u:tok:1:+2::,
19:u:tok:2:-1:the/clpb,
20:u:tok:2:+0:clpb/gene,
22:u:tok:3:-2:in/the/clpb,
24:u:tok:3:-1:the/clpb/gene,
22:u:tok:3:+0:clpb/gene/:,
15:u:pre:1:+0:2:cl,
15:u:suf:1:+0:2:pb,
14:u:tok:1:-2:the,
15:u:tok:1:-1:clpb,
15:u:tok:1:+0:gene,
12:u:tok:1:+1::,
20:u:tok:2:-1:clpb/gene,
17:u:tok:2:+0:gene/:,
24:u:tok:3:-2:the/clpb/gene,
22:u:tok:3:-1:clpb/gene/:,
19:u:tok:3:+0:gene/:/a,
15:u:pre:1:+0:2:ge,
15:u:suf:1:+0:2:ne,
15:u:tok:1:-2:clpb,
15:u:tok:1:-1:gene,
12:u:tok:1:+0::,
20:u:tok:1:+2:c.1233g-a,
17:u:tok:2:-1:gene/:,
14:u:tok:2:+0::/a,
22:u:tok:3:-2:clpb/gene/:,
19:u:tok:3:-1:gene/:/a,
24:u:tok:3:+0::/a/c.1233g-a,
14:u:pre:1:+0:2::,
14:u:suf:1:+0:2::,
15:u:tok:1:-2:gene,
12:u:tok:1:-1::,
20:u:tok:1:+1:c.1233g-a,
21:u:tok:1:+2:transition,
14:u:tok:2:-1::/a,
22:u:tok:2:+0:a/c.1233g-a,
19:u:tok:3:-2:gene/:/a,
24:u:tok:3:-1::/a/c.1233g-a,
33:u:tok:3:+0:a/c.1233g-a/transition,
12:u:tok:1:-2::,
20:u:tok:1:+0:c.1233g-a,
21:u:tok:1:+1:transition,
22:u:tok:2:-1:a/c.1233g-a,
31:u:tok:2:+0:c.1233g-a/transition,
24:u:tok:3:-2::/a/c.1233g-a,
33:u:tok:3:-1:a/c.1233g-a/transition,
33:u:tok:3:+0:c.1233g-a/transition/(,
15:u:pre:1:+0:2:c.,
15:u:suf:1:+0:2:-a,
20:u:tok:1:-1:c.1233g-a,
21:u:tok:1:+0:transition,
31:u:tok:2:-1:c.1233g-a/transition,
23:u:tok:2:+0:transition/(,
33:u:tok:3:-2:a/c.1233g-a/transition,
33:u:tok:3:-1:c.1233g-a/transition/(,
33:u:tok:3:+0:transition/(/c.1233g-a,
15:u:pre:1:+0:2:tr,
15:u:suf:1:+0:2:on,
20:u:tok:1:-2:c.1233g-a,
21:u:tok:1:-1:transition,
23:u:tok:2:-1:transition/(,
22:u:tok:2:+0:(/c.1233g-a,
33:u:tok:3:-2:c.1233g-a/transition/(,
33:u:tok:3:-1:transition/(/c.1233g-a,
24:u:tok:3:+0:(/c.1233g-a/,,
21:u:tok:1:-2:transition,
22:u:tok:1:+2:nm_030813.4,
22:u:tok:2:-1:(/c.1233g-a,
22:u:tok:2:+0:c.1233g-a/,,
33:u:tok:3:-2:transition/(/c.1233g-a,
24:u:tok:3:-1:(/c.1233g-a/,,
34:u:tok:3:+0:c.1233g-a/,/nm_030813.4,
22:u:tok:1:+1:nm_030813.4,
22:u:tok:2:-1:c.1233g-a/,,
24:u:tok:2:+0:,/nm_030813.4,
24:u:tok:3:-2:(/c.1233g-a/,,
34:u:tok:3:-1:c.1233g-a/,/nm_030813.4,
26:u:tok:3:+0:,/nm_030813.4/),
22:u:tok:1:+0:nm_030813.4,
24:u:tok:2:-1:,/nm_030813.4,
24:u:tok:2:+0:nm_030813.4/),
34:u:tok:3:-2:c.1233g-a/,/nm_030813.4,
26:u:tok:3:-1:,/nm_030813.4/),
27:u:tok:3:+0:nm_030813.4/)/in,
15:u:pre:1:+0:2:nm,
15:u:suf:1:+0:2:.4,
22:u:tok:1:-1:nm_030813.4,
15:u:tok:1:+2:exon,
24:u:tok:2:-1:nm_030813.4/),
15:u:tok:2:+0:)/in,
26:u:tok:3:-2:,/nm_030813.4/),
27:u:tok:3:-1:nm_030813.4/)/in,
20:u:tok:3:+0:)/in/exon,
22:u:tok:1:-2:nm_030813.4,
15:u:tok:1:+1:exon,
13:u:tok:1:+2:11,
15:u:tok:2:-1:)/in,
18:u:tok:2:+0:in/exon,
27:u:tok:3:-2:nm_030813.4/)/in,
20:u:tok:3:-1:)/in/exon,
21:u:tok:3:+0:in/exon/11,
15:u:tok:1:+0:exon,
13:u:tok:1:+1:11,
18:u:tok:2:-1:in/exon,
18:u:tok:2:+0:exon/11,
20:u:tok:3:-2:)/in/exon,
21:u:tok:3:-1:in/exon/11,
20:u:tok:3:+0:exon/11/,,
15:u:pre:1:+0:2:ex,
15:u:tok:1:-1:exon,
13:u:tok:1:+0:11,
20:u:tok:1:+2:resulting,
18:u:tok:2:-1:exon/11,
15:u:tok:2:+0:11/,,
21:u:tok:3:-2:in/exon/11,
20:u:tok:3:-1:exon/11/,,
25:u:tok:3:+0:11/,/resulting,
15:u:pre:1:+0:2:11,
15:u:suf:1:+0:2:11,
15:u:tok:1:-2:exon,
13:u:tok:1:-1:11,
20:u:tok:1:+1:resulting,
15:u:tok:2:-1:11/,,
22:u:tok:2:+0:,/resulting,
20:u:tok:3:-2:exon/11/,,
25:u:tok:3:-1:11/,/resulting,
25:u:tok:3:+0:,/resulting/in,
13:u:tok:1:-2:11,
20:u:tok:1:+0:resulting,
22:u:tok:2:-1:,/resulting,
23:u:tok:2:+0:resulting/in,
25:u:tok:3:-2:11/,/resulting,
25:u:tok:3:-1:,/resulting/in,
25:u:tok:3:+0:resulting/in/a,
15:u:pre:1:+0:2:re,
15:u:suf:1:+0:2:ng,
20:u:tok:1:-1:resulting,
24:u:tok:1:+2:met411-to-ile,
23:u:tok:2:-1:resulting/in,
15:u:tok:2:+0:in/a,
25:u:tok:3:-2:,/resulting/in,
25:u:tok:3:-1:resulting/in/a,
29:u:tok:3:+0:in/a/met411-to-ile,
20:u:tok:1:-2:resulting,
24:u:tok:1:+1:met411-to-ile,
15:u:tok:2:-1:in/a,
26:u:tok:2:+0:a/met411-to-ile,
25:u:tok:3:-2:resulting/in/a,
29:u:tok:3:-1:in/a/met411-to-ile,
28:u:tok:3:+0:a/met411-to-ile/(,
24:u:tok:1:+0:met411-to-ile,
16:u:tok:1:+2:m411i,
26:u:tok:2:-1:a/met411-to-ile,
26:u:tok:2:+0:met411-to-ile/(,
29:u:tok:3:-2:in/a/met411-to-ile,
28:u:tok:3:-1:a/met411-to-ile/(,
32:u:tok:3:+0:met411-to-ile/(/m411i,
15:u:suf:1:+0:2:le,
24:u:tok:1:-1:met411-to-ile,
16:u:tok:1:+1:m411i,
26:u:tok:2:-1:met411-to-ile/(,
18:u:tok:2:+0:(/m411i,
28:u:tok:3:-2:a/met411-to-ile/(,
32:u:tok:3:-1:met411-to-ile/(/m411i,
20:u:tok:3:+0:(/m411i/),
24:u:tok:1:-2:met411-to-ile,
16:u:tok:1:+0:m411i,
23:u:tok:1:+2:substitution,
18:u:tok:2:-1:(/m411i,
18:u:tok:2:+0:m411i/),
32:u:tok:3:-2:met411-to-ile/(/m411i,
20:u:tok:3:-1:(/m411i/),
31:u:tok:3:+0:m411i/)/substitution,
15:u:pre:1:+0:2:m4,
15:u:suf:1:+0:2:1i,
16:u:tok:1:-1:m411i,
23:u:tok:1:+1:substitution,
13:u:tok:1:+2:at,
18:u:tok:2:-1:m411i/),
25:u:tok:2:+0:)/substitution,
20:u:tok:3:-2:(/m411i/),
31:u:tok:3:-1:m411i/)/substitution,
28:u:tok:3:+0:)/substitution/at,
16:u:tok:1:-2:m411i,
23:u:tok:1:+0:substitution,
13:u:tok:1:+1:at,
25:u:tok:2:-1:)/substitution,
26:u:tok:2:+0:substitution/at,
31:u:tok:3:-2:m411i/)/substitution,
28:u:tok:3:-1:)/substitution/at,
28:u:tok:3:+0:substitution/at/a,
15:u:pre:1:+0:2:su,
23:u:tok:1:-1:substitution,
13:u:tok:1:+0:at,
17:u:tok:1:+2:highly,
26:u:tok:2:-1:substitution/at,
15:u:tok:2:+0:at/a,
28:u:tok:3:-2:)/substitution/at,
28:u:tok:3:-1:substitution/at/a,
22:u:tok:3:+0:at/a/highly,
15:u:pre:1:+0:2:at,
15:u:suf:1:+0:2:at,
23:u:tok:1:-2:substitution,
13:u:tok:1:-1:at,
17:u:tok:1:+1:highly,
20:u:tok:1:+2:conserved,
15:u:tok:2:-1:at/a,
19:u:tok:2:+0:a/highly,
28:u:tok:3:-2:substitution/at/a,
22:u:tok:3:-1:at/a/highly,
29:u:tok:3:+0:a/highly/conserved,
13:u:tok:1:-2:at,
17:u:tok:1:+0:highly,
20:u:tok:1:+1:conserved,
18:u:tok:1:+2:residue,
19:u:tok:2:-1:a/highly,
27:u:tok:2:+0:highly/conserved,
22:u:tok:3:-2:at/a/highly,
29:u:tok:3:-1:a/highly/conserved,
35:u:tok:3:+0:highly/conserved/residue,
15:u:pre:1:+0:2:hi,
15:u:suf:1:+0:2:ly,
17:u:tok:1:-1:highly,
20:u:tok:1:+0:conserved,
18:u:tok:1:+1:residue,
27:u:tok:2:-1:highly/conserved,
28:u:tok:2:+0:conserved/residue,
29:u:tok:3:-2:a/highly/conserved,
35:u:tok:3:-1:highly/conserved/residue,
31:u:tok:3:+0:conserved/residue/in,
17:u:tok:1:-2:highly,
20:u:tok:1:-1:conserved,
18:u:tok:1:+0:residue,
28:u:tok:2:-1:conserved/residue,
21:u:tok:2:+0:residue/in,
35:u:tok:3:-2:highly/conserved/residue,
31:u:tok:3:-1:conserved/residue/in,
25:u:tok:3:+0:residue/in/the,
15:u:suf:1:+0:2:ue,
20:u:tok:1:-2:conserved,
18:u:tok:1:-1:residue,
15:u:tok:1:+2:aaa+,
21:u:tok:2:-1:residue/in,
31:u:tok:3:-2:conserved/residue/in,
25:u:tok:3:-1:residue/in/the,
22:u:tok:3:+0:in/the/aaa+,
18:u:tok:1:-2:residue,
15:u:tok:1:+1:aaa+,
17:u:tok:1:+2:domain,
19:u:tok:2:+0:the/aaa+,
25:u:tok:3:-2:residue/in/the,
22:u:tok:3:-1:in/the/aaa+,
26:u:tok:3:+0:the/aaa+/domain,
15:u:tok:1:+0:aaa+,
17:u:tok:1:+1:domain,
19:u:tok:2:-1:the/aaa+,
22:u:tok:2:+0:aaa+/domain,
22:u:tok:3:-2:in/the/aaa+,
26:u:tok:3:-1:the/aaa+/domain,
24:u:tok:3:+0:aaa+/domain/,,
15:u:pre:1:+0:2:aa,
15:u:suf:1:+0:2:a+,
15:u:tok:1:-1:aaa+,
17:u:tok:1:+0:domain,
22:u:tok:2:-1:aaa+/domain,
19:u:tok:2:+0:domain/,,
26:u:tok:3:-2:the/aaa+/domain,
24:u:tok:3:-1:aaa+/domain/,,
23:u:tok:3:+0:domain/,/and,
15:u:pre:1:+0:2:do,
15:u:tok:1:-2:aaa+,
17:u:tok:1:-1:domain,
19:u:tok:2:-1:domain/,,
24:u:tok:3:-2:aaa+/domain/,,
23:u:tok:3:-1:domain/,/and,
18:u:tok:3:+0:,/and/a,
17:u:tok:1:-2:domain,
20:u:tok:1:+2:c.1850a-g,
16:u:tok:2:+0:and/a,
23:u:tok:3:-2:domain/,/and,
18:u:tok:3:-1:,/and/a,
26:u:tok:3:+0:and/a/c.1850a-g,
20:u:tok:1:+1:c.1850a-g,
16:u:tok:2:-1:and/a,
22:u:tok:2:+0:a/c.1850a-g,
18:u:tok:3:-2:,/and/a,
26:u:tok:3:-1:and/a/c.1850a-g,
33:u:tok:3:+0:a/c.1850a-g/transition,
20:u:tok:1:+0:c.1850a-g,
22:u:tok:2:-1:a/c.1850a-g,
31:u:tok:2:+0:c.1850a-g/transition,
26:u:tok:3:-2:and/a/c.1850a-g,
33:u:tok:3:-1:a/c.1850a-g/transition,
34:u:tok:3:+0:c.1850a-g/transition/in,
15:u:suf:1:+0:2:-g,
20:u:tok:1:-1:c.1850a-g,
31:u:tok:2:-1:c.1850a-g/transition,
24:u:tok:2:+0:transition/in,
33:u:tok:3:-2:a/c.1850a-g/transition,
34:u:tok:3:-1:c.1850a-g/transition/in,
29:u:tok:3:+0:transition/in/exon,
20:u:tok:1:-2:c.1850a-g,
13:u:tok:1:+2:16,
24:u:tok:2:-1:transition/in,
34:u:tok:3:-2:c.1850a-g/transition/in,
29:u:tok:3:-1:transition/in/exon,
21:u:tok:3:+0:in/exon/16,
13:u:tok:1:+1:16,
18:u:tok:2:+0:exon/16,
29:u:tok:3:-2:transition/in/exon,
21:u:tok:3:-1:in/exon/16,
20:u:tok:3:+0:exon/16/,,
13:u:tok:1:+0:16,
18:u:tok:2:-1:exon/16,
15:u:tok:2:+0:16/,,
21:u:tok:3:-2:in/exon/16,
20:u:tok:3:-1:exon/16/,,
25:u:tok:3:+0:16/,/resulting,
15:u:pre:1:+0:2:16,
15:u:suf:1:+0:2:16,
13:u:tok:1:-1:16,
15:u:tok:2:-1:16/,,
20:u:tok:3:-2:exon/16/,,
25:u:tok:3:-1:16/,/resulting,
13:u:tok:1:-2:16,
25:u:tok:3:-2:16/,/resulting,
24:u:tok:1:+2:tyr617-to-cys,
29:u:tok:3:+0:in/a/tyr617-to-cys,
24:u:tok:1:+1:tyr617-to-cys,
26:u:tok:2:+0:a/tyr617-to-cys,
29:u:tok:3:-1:in/a/tyr617-to-cys,
28:u:tok:3:+0:a/tyr617-to-cys/(,
24:u:tok:1:+0:tyr617-to-cys,
16:u:tok:1:+2:y617c,
26:u:tok:2:-1:a/tyr617-to-cys,
26:u:tok:2:+0:tyr617-to-cys/(,
29:u:tok:3:-2:in/a/tyr617-to-cys,
28:u:tok:3:-1:a/tyr617-to-cys/(,
32:u:tok:3:+0:tyr617-to-cys/(/y617c,
15:u:pre:1:+0:2:ty,
15:u:suf:1:+0:2:ys,
24:u:tok:1:-1:tyr617-to-cys,
16:u:tok:1:+1:y617c,
26:u:tok:2:-1:tyr617-to-cys/(,
18:u:tok:2:+0:(/y617c,
28:u:tok:3:-2:a/tyr617-to-cys/(,
32:u:tok:3:-1:tyr617-to-cys/(/y617c,
20:u:tok:3:+0:(/y617c/;,
24:u:tok:1:-2:tyr617-to-cys,
16:u:tok:1:+0:y617c,
22:u:tok:1:+2:616254.0005,
18:u:tok:2:-1:(/y617c,
18:u:tok:2:+0:y617c/;,
32:u:tok:3:-2:tyr617-to-cys/(/y617c,
20:u:tok:3:-1:(/y617c/;,
30:u:tok:3:+0:y617c/;/616254.0005,
15:u:pre:1:+0:2:y6,
15:u:suf:1:+0:2:7c,
16:u:tok:1:-1:y617c,
22:u:tok:1:+1:616254.0005,
18:u:tok:2:-1:y617c/;,
24:u:tok:2:+0:;/616254.0005,
20:u:tok:3:-2:(/y617c/;,
30:u:tok:3:-1:y617c/;/616254.0005,
26:u:tok:3:+0:;/616254.0005/),
16:u:tok:1:-2:y617c,
22:u:tok:1:+0:616254.0005,
24:u:tok:2:-1:;/616254.0005,
24:u:tok:2:+0:616254.0005/),
30:u:tok:3:-2:y617c/;/616254.0005,
26:u:tok:3:-1:;/616254.0005/),
37:u:tok:3:+0:616254.0005/)/substitution,
15:u:suf:1:+0:2:05,
22:u:tok:1:-1:616254.0005,
24:u:tok:2:-1:616254.0005/),
26:u:tok:3:-2:;/616254.0005/),
37:u:tok:3:-1:616254.0005/)/substitution,
22:u:tok:1:-2:616254.0005,
37:u:tok:3:-2:616254.0005/)/substitution,
13:u:tok:1:+2:d2,
20:u:tok:3:+0:in/the/d2,
13:u:tok:1:+1:d2,
17:u:tok:2:+0:the/d2,
20:u:tok:3:-1:in/the/d2,
24:u:tok:3:+0:the/d2/domain,
13:u:tok:1:+0:d2,
17:u:tok:2:-1:the/d2,
20:u:tok:2:+0:d2/domain,
20:u:tok:3:-2:in/the/d2,
24:u:tok:3:-1:the/d2/domain,
22:u:tok:3:+0:d2/domain/.,
15:u:pre:1:+0:2:d2,
15:u:suf:1:+0:2:d2,
13:u:tok:1:-1:d2,
20:u:tok:2:-1:d2/domain,
19:u:tok:2:+0:domain/.,
24:u:tok:3:-2:the/d2/domain,
22:u:tok:3:-1:d2/domain/.,
24:u:tok:3:+0:domain/./_x+1,
13:u:tok:1:-2:d2,
19:u:tok:2:-1:domain/.,
22:u:tok:3:-2:d2/domain/.,
24:u:tok:3:-1:domain/./_x+1,
21:u:tok:1:+0:expression,
26:u:tok:2:-1:_x-1/expression,
24:u:tok:2:+0:expression/of,
31:u:tok:3:-2:_x-2/_x-1/expression,
29:u:tok:3:-1:_x-1/expression/of,
28:u:tok:3:+0:expression/of/the,
21:u:tok:1:-1:expression,
24:u:tok:2:-1:expression/of,
17:u:tok:2:+0:of/the,
29:u:tok:3:-2:_x-1/expression/of,
28:u:tok:3:-1:expression/of/the,
23:u:tok:3:+0:of/the/m411i,
21:u:tok:1:-2:expression,
13:u:tok:1:+2:or,
17:u:tok:2:-1:of/the,
20:u:tok:2:+0:the/m411i,
28:u:tok:3:-2:expression/of/the,
23:u:tok:3:-1:of/the/m411i,
23:u:tok:3:+0:the/m411i/or,
13:u:tok:1:+1:or,
20:u:tok:2:-1:the/m411i,
19:u:tok:2:+0:m411i/or,
23:u:tok:3:-2:of/the/m411i,
23:u:tok:3:-1:the/m411i/or,
25:u:tok:3:+0:m411i/or/y617c,
13:u:tok:1:+0:or,
18:u:tok:1:+2:alleles,
19:u:tok:2:-1:m411i/or,
19:u:tok:2:+0:or/y617c,
23:u:tok:3:-2:the/m411i/or,
25:u:tok:3:-1:m411i/or/y617c,
27:u:tok:3:+0:or/y617c/alleles,
15:u:pre:1:+0:2:or,
15:u:suf:1:+0:2:or,
13:u:tok:1:-1:or,
18:u:tok:1:+1:alleles,
16:u:tok:1:+2:could,
19:u:tok:2:-1:or/y617c,
24:u:tok:2:+0:y617c/alleles,
25:u:tok:3:-2:m411i/or/y617c,
27:u:tok:3:-1:or/y617c/alleles,
30:u:tok:3:+0:y617c/alleles/could,
13:u:tok:1:-2:or,
18:u:tok:1:+0:alleles,
16:u:tok:1:+1:could,
14:u:tok:1:+2:not,
24:u:tok:2:-1:y617c/alleles,
24:u:tok:2:+0:alleles/could,
27:u:tok:3:-2:or/y617c/alleles,
30:u:tok:3:-1:y617c/alleles/could,
28:u:tok:3:+0:alleles/could/not,
15:u:suf:1:+0:2:es,
18:u:tok:1:-1:alleles,
16:u:tok:1:+0:could,
14:u:tok:1:+1:not,
17:u:tok:1:+2:rescue,
24:u:tok:2:-1:alleles/could,
20:u:tok:2:+0:could/not,
30:u:tok:3:-2:y617c/alleles/could,
28:u:tok:3:-1:alleles/could/not,
27:u:tok:3:+0:could/not/rescue,
18:u:tok:1:-2:alleles,
16:u:tok:1:-1:could,
14:u:tok:1:+0:not,
17:u:tok:1:+1:rescue,
21:u:tok:1:+2:morpholino,
20:u:tok:2:-1:could/not,
21:u:tok:2:+0:not/rescue,
28:u:tok:3:-2:alleles/could/not,
27:u:tok:3:-1:could/not/rescue,
32:u:tok:3:+0:not/rescue/morpholino,
15:u:suf:1:+0:2:ot,
16:u:tok:1:-2:could,
14:u:tok:1:-1:not,
17:u:tok:1:+0:rescue,
21:u:tok:1:+1:morpholino,
20:u:tok:1:+2:knockdown,
21:u:tok:2:-1:not/rescue,
28:u:tok:2:+0:rescue/morpholino,
27:u:tok:3:-2:could/not/rescue,
32:u:tok:3:-1:not/rescue/morpholino,
38:u:tok:3:+0:rescue/morpholino/knockdown,
14:u:tok:1:-2:not,
17:u:tok:1:-1:rescue,
21:u:tok:1:+0:morpholino,
20:u:tok:1:+1:knockdown,
28:u:tok:2:-1:rescue/morpholino,
31:u:tok:2:+0:morpholino/knockdown,
32:u:tok:3:-2:not/rescue/morpholino,
38:u:tok:3:-1:rescue/morpholino/knockdown,
34:u:tok:3:+0:morpholino/knockdown/of,
15:u:pre:1:+0:2:mo,
17:u:tok:1:-2:rescue,
21:u:tok:1:-1:morpholino,
20:u:tok:1:+0:knockdown,
31:u:tok:2:-1:morpholino/knockdown,
23:u:tok:2:+0:knockdown/of,
38:u:tok:3:-2:rescue/morpholino/knockdown,
34:u:tok:3:-1:morpholino/knockdown/of,
27:u:tok:3:+0:knockdown/of/the,
15:u:pre:1:+0:2:kn,
15:u:suf:1:+0:2:wn,
21:u:tok:1:-2:morpholino,
20:u:tok:1:-1:knockdown,
23:u:tok:2:-1:knockdown/of,
34:u:tok:3:-2:morpholino/knockdown/of,
27:u:tok:3:-1:knockdown/of/the,
22:u:tok:3:+0:of/the/clpb,
20:u:tok:1:-2:knockdown,
19:u:tok:1:+2:ortholog,
27:u:tok:3:-2:knockdown/of/the,
22:u:tok:3:-1:of/the/clpb,
28:u:tok:3:+0:the/clpb/ortholog,
19:u:tok:1:+1:ortholog,
24:u:tok:2:+0:clpb/ortholog,
22:u:tok:3:-2:of/the/clpb,
28:u:tok:3:-1:the/clpb/ortholog,
27:u:tok:3:+0:clpb/ortholog/in,
19:u:tok:1:+0:ortholog,
20:u:tok:1:+2:zebrafish,
24:u:tok:2:-1:clpb/ortholog,
22:u:tok:2:+0:ortholog/in,
28:u:tok:3:-2:the/clpb/ortholog,
27:u:tok:3:-1:clpb/ortholog/in,
32:u:tok:3:+0:ortholog/in/zebrafish,
15:u:suf:1:+0:2:og,
19:u:tok:1:-1:ortholog,
20:u:tok:1:+1:zebrafish,
22:u:tok:2:-1:ortholog/in,
23:u:tok:2:+0:in/zebrafish,
27:u:tok:3:-2:clpb/ortholog/in,
32:u:tok:3:-1:ortholog/in/zebrafish,
25:u:tok:3:+0:in/zebrafish/,,
19:u:tok:1:-2:ortholog,
20:u:tok:1:+0:zebrafish,
21:u:tok:1:+2:suggesting,
23:u:tok:2:-1:in/zebrafish,
22:u:tok:2:+0:zebrafish/,,
32:u:tok:3:-2:ortholog/in/zebrafish,
25:u:tok:3:-1:in/zebrafish/,,
33:u:tok:3:+0:zebrafish/,/suggesting,
15:u:pre:1:+0:2:ze,
15:u:suf:1:+0:2:sh,
20:u:tok:1:-1:zebrafish,
21:u:tok:1:+1:suggesting,
15:u:tok:1:+2:that,
22:u:tok:2:-1:zebrafish/,,
23:u:tok:2:+0:,/suggesting,
25:u:tok:3:-2:in/zebrafish/,,
33:u:tok:3:-1:zebrafish/,/suggesting,
28:u:tok:3:+0:,/suggesting/that,
20:u:tok:1:-2:zebrafish,
21:u:tok:1:+0:suggesting,
15:u:tok:1:+1:that,
16:u:tok:1:+2:these,
23:u:tok:2:-1:,/suggesting,
26:u:tok:2:+0:suggesting/that,
33:u:tok:3:-2:zebrafish/,/suggesting,
28:u:tok:3:-1:,/suggesting/that,
32:u:tok:3:+0:suggesting/that/these,
21:u:tok:1:-1:suggesting,
15:u:tok:1:+0:that,
16:u:tok:1:+1:these,
19:u:tok:1:+2:variants,
26:u:tok:2:-1:suggesting/that,
21:u:tok:2:+0:that/these,
28:u:tok:3:-2:,/suggesting/that,
32:u:tok:3:-1:suggesting/that/these,
30:u:tok:3:+0:that/these/variants,
21:u:tok:1:-2:suggesting,
15:u:tok:1:-1:that,
16:u:tok:1:+0:these,
19:u:tok:1:+1:variants,
15:u:tok:1:+2:have,
21:u:tok:2:-1:that/these,
25:u:tok:2:+0:these/variants,
32:u:tok:3:-2:suggesting/that/these,
30:u:tok:3:-1:that/these/variants,
30:u:tok:3:+0:these/variants/have,
15:u:suf:1:+0:2:se,
15:u:tok:1:-2:that,
16:u:tok:1:-1:these,
19:u:tok:1:+0:variants,
15:u:tok:1:+1:have,
17:u:tok:1:+2:little,
25:u:tok:2:-1:these/variants,
24:u:tok:2:+0:variants/have,
30:u:tok:3:-2:that/these/variants,
30:u:tok:3:-1:these/variants/have,
31:u:tok:3:+0:variants/have/little,
15:u:pre:1:+0:2:va,
16:u:tok:1:-2:these,
19:u:tok:1:-1:variants,
15:u:tok:1:+0:have,
17:u:tok:1:+1:little,
24:u:tok:2:-1:variants/have,
22:u:tok:2:+0:have/little,
30:u:tok:3:-2:these/variants/have,
31:u:tok:3:-1:variants/have/little,
25:u:tok:3:+0:have/little/or,
15:u:pre:1:+0:2:ha,
15:u:suf:1:+0:2:ve,
19:u:tok:1:-2:variants,
15:u:tok:1:-1:have,
17:u:tok:1:+0:little,
22:u:tok:2:-1:have/little,
20:u:tok:2:+0:little/or,
31:u:tok:3:-2:variants/have/little,
25:u:tok:3:-1:have/little/or,
23:u:tok:3:+0:little/or/no,
15:u:pre:1:+0:2:li,
15:u:tok:1:-2:have,
17:u:tok:1:-1:little,
19:u:tok:1:+2:residual,
20:u:tok:2:-1:little/or,
16:u:tok:2:+0:or/no,
25:u:tok:3:-2:have/little/or,
23:u:tok:3:-1:little/or/no,
25:u:tok:3:+0:or/no/residual,
17:u:tok:1:-2:little,
19:u:tok:1:+1:residual,
19:u:tok:1:+2:activity,
16:u:tok:2:-1:or/no,
22:u:tok:2:+0:no/residual,
23:u:tok:3:-2:little/or/no,
25:u:tok:3:-1:or/no/residual,
31:u:tok:3:+0:no/residual/activity,
19:u:tok:1:+0:residual,
19:u:tok:1:+1:activity,
22:u:tok:2:-1:no/residual,
28:u:tok:2:+0:residual/activity,
25:u:tok:3:-2:or/no/residual,
31:u:tok:3:-1:no/residual/activity,
30:u:tok:3:+0:residual/activity/.,
19:u:tok:1:-1:residual,
19:u:tok:1:+0:activity,
28:u:tok:2:-1:residual/activity,
21:u:tok:2:+0:activity/.,
31:u:tok:3:-2:no/residual/activity,
30:u:tok:3:-1:residual/activity/.,
26:u:tok:3:+0:activity/./_x+1,
15:u:suf:1:+0:2:ty,
19:u:tok:1:-2:residual,
19:u:tok:1:-1:activity,
21:u:tok:2:-1:activity/.,
30:u:tok:3:-2:residual/activity/.,
26:u:tok:3:-1:activity/./_x+1,
12:u:tok:1:+1:3,
15:u:tok:2:+0:in/3,
20:u:tok:3:-1:_x-1/in/3,
20:u:tok:3:+0:in/3/sibs,
12:u:tok:1:+0:3,
15:u:tok:2:-1:in/3,
17:u:tok:2:+0:3/sibs,
20:u:tok:3:-2:_x-1/in/3,
20:u:tok:3:-1:in/3/sibs,
22:u:tok:3:+0:3/sibs/with,
14:u:pre:1:+0:2:3,
14:u:suf:1:+0:2:3,
12:u:tok:1:-1:3,
17:u:tok:2:-1:3/sibs,
20:u:tok:3:-2:in/3/sibs,
22:u:tok:3:-1:3/sibs/with,
12:u:tok:1:-2:3,
21:u:tok:1:+2:moderately,
22:u:tok:3:-2:3/sibs/with,
28:u:tok:3:+0:with/a/moderately,
21:u:tok:1:+1:moderately,
17:u:tok:1:+2:severe,
23:u:tok:2:+0:a/moderately,
28:u:tok:3:-1:with/a/moderately,
30:u:tok:3:+0:a/moderately/severe,
21:u:tok:1:+0:moderately,
17:u:tok:1:+1:severe,
23:u:tok:2:-1:a/moderately,
28:u:tok:2:+0:moderately/severe,
28:u:tok:3:-2:with/a/moderately,
30:u:tok:3:-1:a/moderately/severe,
33:u:tok:3:+0:moderately/severe/form,
21:u:tok:1:-1:moderately,
17:u:tok:1:+0:severe,
28:u:tok:2:-1:moderately/severe,
22:u:tok:2:+0:severe/form,
30:u:tok:3:-2:a/moderately/severe,
33:u:tok:3:-1:moderately/severe/form,
25:u:tok:3:+0:severe/form/of,
15:u:pre:1:+0:2:se,
15:u:suf:1:+0:2:re,
21:u:tok:1:-2:moderately,
17:u:tok:1:-1:severe,
22:u:tok:2:-1:severe/form,
33:u:tok:3:-2:moderately/severe/form,
25:u:tok:3:-1:severe/form/of,
17:u:tok:1:-2:severe,
25:u:tok:3:-2:severe/form/of,
21:u:tok:3:+0:616271/)/,,
14:u:tok:2:+0:)/,,
21:u:tok:3:-1:616271/)/,,
23:u:tok:3:+0:)/,/wortmann,
14:u:tok:2:-1:)/,,
21:u:tok:3:-2:616271/)/,,
23:u:tok:3:-1:)/,/wortmann,
23:u:tok:3:-2:)/,/wortmann,
20:u:tok:1:+2:c.1222a-g,
24:u:tok:3:+0::/a/c.1222a-g,
20:u:tok:1:+1:c.1222a-g,
22:u:tok:2:+0:a/c.1222a-g,
24:u:tok:3:-1::/a/c.1222a-g,
33:u:tok:3:+0:a/c.1222a-g/transition,
20:u:tok:1:+0:c.1222a-g,
22:u:tok:2:-1:a/c.1222a-g,
31:u:tok:2:+0:c.1222a-g/transition,
24:u:tok:3:-2::/a/c.1222a-g,
33:u:tok:3:-1:a/c.1222a-g/transition,
33:u:tok:3:+0:c.1222a-g/transition/(,
20:u:tok:1:-1:c.1222a-g,
31:u:tok:2:-1:c.1222a-g/transition,
33:u:tok:3:-2:a/c.1222a-g/transition,
33:u:tok:3:-1:c.1222a-g/transition/(,
33:u:tok:3:+0:transition/(/c.1222a-g,
20:u:tok:1:-2:c.1222a-g,
22:u:tok:2:+0:(/c.1222a-g,
33:u:tok:3:-2:c.1222a-g/transition/(,
33:u:tok:3:-1:transition/(/c.1222a-g,
24:u:tok:3:+0:(/c.1222a-g/,,
22:u:tok:2:-1:(/c.1222a-g,
22:u:tok:2:+0:c.1222a-g/,,
33:u:tok:3:-2:transition/(/c.1222a-g,
24:u:tok:3:-1:(/c.1222a-g/,,
34:u:tok:3:+0:c.1222a-g/,/nm_030813.4,
22:u:tok:2:-1:c.1222a-g/,,
24:u:tok:3:-2:(/c.1222a-g/,,
34:u:tok:3:-1:c.1222a-g/,/nm_030813.4,
34:u:tok:3:-2:c.1222a-g/,/nm_030813.4,
13:u:tok:1:+2:an,
26:u:tok:3:+0:resulting/in/an,
13:u:tok:1:+1:an,
24:u:tok:1:+2:arg408-to-gly,
16:u:tok:2:+0:in/an,
26:u:tok:3:-1:resulting/in/an,
30:u:tok:3:+0:in/an/arg408-to-gly,
13:u:tok:1:+0:an,
24:u:tok:1:+1:arg408-to-gly,
16:u:tok:2:-1:in/an,
27:u:tok:2:+0:an/arg408-to-gly,
26:u:tok:3:-2:resulting/in/an,
30:u:tok:3:-1:in/an/arg408-to-gly,
29:u:tok:3:+0:an/arg408-to-gly/(,
15:u:suf:1:+0:2:an,
13:u:tok:1:-1:an,
24:u:tok:1:+0:arg408-to-gly,
16:u:tok:1:+2:r408g,
27:u:tok:2:-1:an/arg408-to-gly,
26:u:tok:2:+0:arg408-to-gly/(,
30:u:tok:3:-2:in/an/arg408-to-gly,
29:u:tok:3:-1:an/arg408-to-gly/(,
32:u:tok:3:+0:arg408-to-gly/(/r408g,
15:u:pre:1:+0:2:ar,
13:u:tok:1:-2:an,
24:u:tok:1:-1:arg408-to-gly,
16:u:tok:1:+1:r408g,
26:u:tok:2:-1:arg408-to-gly/(,
18:u:tok:2:+0:(/r408g,
29:u:tok:3:-2:an/arg408-to-gly/(,
32:u:tok:3:-1:arg408-to-gly/(/r408g,
20:u:tok:3:+0:(/r408g/),
24:u:tok:1:-2:arg408-to-gly,
16:u:tok:1:+0:r408g,
18:u:tok:2:-1:(/r408g,
18:u:tok:2:+0:r408g/),
32:u:tok:3:-2:arg408-to-gly/(/r408g,
20:u:tok:3:-1:(/r408g/),
31:u:tok:3:+0:r408g/)/substitution,
15:u:pre:1:+0:2:r4,
15:u:suf:1:+0:2:8g,
16:u:tok:1:-1:r408g,
18:u:tok:2:-1:r408g/),
20:u:tok:3:-2:(/r408g/),
31:u:tok:3:-1:r408g/)/substitution,
16:u:tok:1:-2:r408g,
31:u:tok:3:-2:r408g/)/substitution,
25:u:tok:3:+0:at/a/conserved,
22:u:tok:2:+0:a/conserved,
25:u:tok:3:-1:at/a/conserved,
30:u:tok:3:+0:a/conserved/residue,
22:u:tok:2:-1:a/conserved,
25:u:tok:3:-2:at/a/conserved,
30:u:tok:3:-1:a/conserved/residue,
30:u:tok:3:-2:a/conserved/residue,
20:u:tok:1:+2:c.1249c-t,
26:u:tok:3:+0:and/a/c.1249c-t,
20:u:tok:1:+1:c.1249c-t,
22:u:tok:2:+0:a/c.1249c-t,
26:u:tok:3:-1:and/a/c.1249c-t,
33:u:tok:3:+0:a/c.1249c-t/transition,
20:u:tok:1:+0:c.1249c-t,
22:u:tok:2:-1:a/c.1249c-t,
31:u:tok:2:+0:c.1249c-t/transition,
26:u:tok:3:-2:and/a/c.1249c-t,
33:u:tok:3:-1:a/c.1249c-t/transition,
34:u:tok:3:+0:c.1249c-t/transition/in,
15:u:suf:1:+0:2:-t,
20:u:tok:1:-1:c.1249c-t,
31:u:tok:2:-1:c.1249c-t/transition,
33:u:tok:3:-2:a/c.1249c-t/transition,
34:u:tok:3:-1:c.1249c-t/transition/in,
20:u:tok:1:-2:c.1249c-t,
34:u:tok:3:-2:c.1249c-t/transition/in,
24:u:tok:1:+2:arg417-to-ter,
30:u:tok:3:+0:in/an/arg417-to-ter,
24:u:tok:1:+1:arg417-to-ter,
27:u:tok:2:+0:an/arg417-to-ter,
30:u:tok:3:-1:in/an/arg417-to-ter,
29:u:tok:3:+0:an/arg417-to-ter/(,
24:u:tok:1:+0:arg417-to-ter,
16:u:tok:1:+2:r417x,
27:u:tok:2:-1:an/arg417-to-ter,
26:u:tok:2:+0:arg417-to-ter/(,
30:u:tok:3:-2:in/an/arg417-to-ter,
29:u:tok:3:-1:an/arg417-to-ter/(,
32:u:tok:3:+0:arg417-to-ter/(/r417x,
15:u:suf:1:+0:2:er,
24:u:tok:1:-1:arg417-to-ter,
16:u:tok:1:+1:r417x,
26:u:tok:2:-1:arg417-to-ter/(,
18:u:tok:2:+0:(/r417x,
29:u:tok:3:-2:an/arg417-to-ter/(,
32:u:tok:3:-1:arg417-to-ter/(/r417x,
20:u:tok:3:+0:(/r417x/;,
24:u:tok:1:-2:arg417-to-ter,
16:u:tok:1:+0:r417x,
22:u:tok:1:+2:616254.0007,
18:u:tok:2:-1:(/r417x,
18:u:tok:2:+0:r417x/;,
32:u:tok:3:-2:arg417-to-ter/(/r417x,
20:u:tok:3:-1:(/r417x/;,
30:u:tok:3:+0:r417x/;/616254.0007,
15:u:suf:1:+0:2:7x,
16:u:tok:1:-1:r417x,
22:u:tok:1:+1:616254.0007,
18:u:tok:2:-1:r417x/;,
24:u:tok:2:+0:;/616254.0007,
20:u:tok:3:-2:(/r417x/;,
30:u:tok:3:-1:r417x/;/616254.0007,
26:u:tok:3:+0:;/616254.0007/),
16:u:tok:1:-2:r417x,
22:u:tok:1:+0:616254.0007,
24:u:tok:2:-1:;/616254.0007,
24:u:tok:2:+0:616254.0007/),
30:u:tok:3:-2:r417x/;/616254.0007,
26:u:tok:3:-1:;/616254.0007/),
37:u:tok:3:+0:616254.0007/)/substitution,
15:u:suf:1:+0:2:07,
22:u:tok:1:-1:616254.0007,
24:u:tok:2:-1:616254.0007/),
26:u:tok:3:-2:;/616254.0007/),
37:u:tok:3:-1:616254.0007/)/substitution,
27:u:tok:3:+0:)/substitution/.,
22:u:tok:1:-2:616254.0007,
25:u:tok:2:+0:substitution/.,
37:u:tok:3:-2:616254.0007/)/substitution,
27:u:tok:3:-1:)/substitution/.,
30:u:tok:3:+0:substitution/./_x+1,
25:u:tok:2:-1:substitution/.,
27:u:tok:3:-2:)/substitution/.,
30:u:tok:3:-1:substitution/./_x+1,
19:u:tok:1:+2:mutation,
19:u:tok:2:-1:_x-1/the,
20:u:tok:2:+0:the/r408g,
24:u:tok:3:-2:_x-2/_x-1/the,
25:u:tok:3:-1:_x-1/the/r408g,
29:u:tok:3:+0:the/r408g/mutation,
19:u:tok:1:+1:mutation,
14:u:tok:1:+2:had,
20:u:tok:2:-1:the/r408g,
25:u:tok:2:+0:r408g/mutation,
25:u:tok:3:-2:_x-1/the/r408g,
29:u:tok:3:-1:the/r408g/mutation,
29:u:tok:3:+0:r408g/mutation/had,
19:u:tok:1:+0:mutation,
14:u:tok:1:+1:had,
25:u:tok:2:-1:r408g/mutation,
23:u:tok:2:+0:mutation/had,
29:u:tok:3:-2:the/r408g/mutation,
29:u:tok:3:-1:r408g/mutation/had,
25:u:tok:3:+0:mutation/had/a,
19:u:tok:1:-1:mutation,
14:u:tok:1:+0:had,
20:u:tok:1:+2:frequency,
23:u:tok:2:-1:mutation/had,
16:u:tok:2:+0:had/a,
29:u:tok:3:-2:r408g/mutation/had,
25:u:tok:3:-1:mutation/had/a,
26:u:tok:3:+0:had/a/frequency,
15:u:suf:1:+0:2:ad,
19:u:tok:1:-2:mutation,
14:u:tok:1:-1:had,
20:u:tok:1:+1:frequency,
16:u:tok:2:-1:had/a,
22:u:tok:2:+0:a/frequency,
25:u:tok:3:-2:mutation/had/a,
26:u:tok:3:-1:had/a/frequency,
25:u:tok:3:+0:a/frequency/of,
14:u:tok:1:-2:had,
20:u:tok:1:+0:frequency,
16:u:tok:1:+2:0.011,
22:u:tok:2:-1:a/frequency,
23:u:tok:2:+0:frequency/of,
26:u:tok:3:-2:had/a/frequency,
25:u:tok:3:-1:a/frequency/of,
29:u:tok:3:+0:frequency/of/0.011,
15:u:pre:1:+0:2:fr,
15:u:suf:1:+0:2:cy,
20:u:tok:1:-1:frequency,
16:u:tok:1:+1:0.011,
12:u:tok:1:+2:%,
23:u:tok:2:-1:frequency/of,
19:u:tok:2:+0:of/0.011,
25:u:tok:3:-2:a/frequency/of,
29:u:tok:3:-1:frequency/of/0.011,
21:u:tok:3:+0:of/0.011/%,
20:u:tok:1:-2:frequency,
16:u:tok:1:+0:0.011,
12:u:tok:1:+1:%,
19:u:tok:2:-1:of/0.011,
18:u:tok:2:+0:0.011/%,
29:u:tok:3:-2:frequency/of/0.011,
21:u:tok:3:-1:of/0.011/%,
20:u:tok:3:+0:0.011/%/(,
15:u:pre:1:+0:2:0.,
16:u:tok:1:-1:0.011,
12:u:tok:1:+0:%,
13:u:tok:1:+2:22,
18:u:tok:2:-1:0.011/%,
14:u:tok:2:+0:%/(,
21:u:tok:3:-2:of/0.011/%,
20:u:tok:3:-1:0.011/%/(,
17:u:tok:3:+0:%/(/22,
14:u:pre:1:+0:2:%,
14:u:suf:1:+0:2:%,
16:u:tok:1:-2:0.011,
12:u:tok:1:-1:%,
13:u:tok:1:+1:22,
14:u:tok:2:-1:%/(,
15:u:tok:2:+0:(/22,
20:u:tok:3:-2:0.011/%/(,
17:u:tok:3:-1:%/(/22,
18:u:tok:3:+0:(/22/of,
12:u:tok:1:-2:%,
13:u:tok:1:+0:22,
18:u:tok:1:+2:122,848,
15:u:tok:2:-1:(/22,
16:u:tok:2:+0:22/of,
17:u:tok:3:-2:%/(/22,
18:u:tok:3:-1:(/22/of,
24:u:tok:3:+0:22/of/122,848,
15:u:pre:1:+0:2:22,
15:u:suf:1:+0:2:22,
13:u:tok:1:-1:22,
18:u:tok:1:+1:122,848,
16:u:tok:2:-1:22/of,
21:u:tok:2:+0:of/122,848,
18:u:tok:3:-2:(/22/of,
24:u:tok:3:-1:22/of/122,848,
29:u:tok:3:+0:of/122,848/alleles,
13:u:tok:1:-2:22,
18:u:tok:1:+0:122,848,
21:u:tok:2:-1:of/122,848,
26:u:tok:2:+0:122,848/alleles,
24:u:tok:3:-2:22/of/122,848,
29:u:tok:3:-1:of/122,848/alleles,
28:u:tok:3:+0:122,848/alleles/),
15:u:pre:1:+0:2:12,
15:u:suf:1:+0:2:48,
18:u:tok:1:-1:122,848,
26:u:tok:2:-1:122,848/alleles,
20:u:tok:2:+0:alleles/),
29:u:tok:3:-2:of/122,848/alleles,
28:u:tok:3:-1:122,848/alleles/),
23:u:tok:3:+0:alleles/)/in,
18:u:tok:1:-2:122,848,
20:u:tok:2:-1:alleles/),
28:u:tok:3:-2:122,848/alleles/),
23:u:tok:3:-1:alleles/)/in,
19:u:tok:3:+0:)/in/the,
16:u:tok:1:+2:exome,
23:u:tok:3:-2:alleles/)/in,
19:u:tok:3:-1:)/in/the,
23:u:tok:3:+0:in/the/exome,
16:u:tok:1:+1:exome,
22:u:tok:1:+2:aggregation,
20:u:tok:2:+0:the/exome,
19:u:tok:3:-2:)/in/the,
23:u:tok:3:-1:in/the/exome,
32:u:tok:3:+0:the/exome/aggregation,
16:u:tok:1:+0:exome,
22:u:tok:1:+1:aggregation,
21:u:tok:1:+2:consortium,
20:u:tok:2:-1:the/exome,
28:u:tok:2:+0:exome/aggregation,
23:u:tok:3:-2:in/the/exome,
32:u:tok:3:-1:the/exome/aggregation,
39:u:tok:3:+0:exome/aggregation/consortium,
15:u:suf:1:+0:2:me,
16:u:tok:1:-1:exome,
22:u:tok:1:+0:aggregation,
21:u:tok:1:+1:consortium,
19:u:tok:1:+2:database,
28:u:tok:2:-1:exome/aggregation,
33:u:tok:2:+0:aggregation/consortium,
32:u:tok:3:-2:the/exome/aggregation,
39:u:tok:3:-1:exome/aggregation/consortium,
42:u:tok:3:+0:aggregation/consortium/database,
15:u:pre:1:+0:2:ag,
16:u:tok:1:-2:exome,
22:u:tok:1:-1:aggregation,
21:u:tok:1:+0:consortium,
19:u:tok:1:+1:database,
33:u:tok:2:-1:aggregation/consortium,
30:u:tok:2:+0:consortium/database,
39:u:tok:3:-2:exome/aggregation/consortium,
42:u:tok:3:-1:aggregation/consortium/database,
32:u:tok:3:+0:consortium/database/,,
15:u:suf:1:+0:2:um,
22:u:tok:1:-2:aggregation,
21:u:tok:1:-1:consortium,
19:u:tok:1:+0:database,
30:u:tok:2:-1:consortium/database,
21:u:tok:2:+0:database/,,
42:u:tok:3:-2:aggregation/consortium/database,
32:u:tok:3:-1:consortium/database/,,
25:u:tok:3:+0:database/,/and,
15:u:pre:1:+0:2:da,
21:u:tok:1:-2:consortium,
19:u:tok:1:-1:database,
21:u:tok:2:-1:database/,,
32:u:tok:3:-2:consortium/database/,,
25:u:tok:3:-1:database/,/and,
20:u:tok:3:+0:,/and/the,
19:u:tok:1:-2:database,
18:u:tok:2:+0:and/the,
25:u:tok:3:-2:database/,/and,
20:u:tok:3:-1:,/and/the,
24:u:tok:3:+0:and/the/r417x,
18:u:tok:2:-1:and/the,
20:u:tok:2:+0:the/r417x,
20:u:tok:3:-2:,/and/the,
24:u:tok:3:-1:and/the/r417x,
29:u:tok:3:+0:the/r417x/mutation,
14:u:tok:1:+2:was,
20:u:tok:2:-1:the/r417x,
25:u:tok:2:+0:r417x/mutation,
24:u:tok:3:-2:and/the/r417x,
29:u:tok:3:-1:the/r417x/mutation,
29:u:tok:3:+0:r417x/mutation/was,
14:u:tok:1:+1:was,
16:u:tok:1:+2:found,
25:u:tok:2:-1:r417x/mutation,
23:u:tok:2:+0:mutation/was,
29:u:tok:3:-2:the/r417x/mutation,
29:u:tok:3:-1:r417x/mutation/was,
29:u:tok:3:+0:mutation/was/found,
14:u:tok:1:+0:was,
16:u:tok:1:+1:found,
23:u:tok:2:-1:mutation/was,
20:u:tok:2:+0:was/found,
29:u:tok:3:-2:r417x/mutation/was,
29:u:tok:3:-1:mutation/was/found,
23:u:tok:3:+0:was/found/in,
15:u:pre:1:+0:2:wa,
15:u:suf:1:+0:2:as,
14:u:tok:1:-1:was,
16:u:tok:1:+0:found,
12:u:tok:1:+2:4,
20:u:tok:2:-1:was/found,
19:u:tok:2:+0:found/in,
29:u:tok:3:-2:mutation/was/found,
23:u:tok:3:-1:was/found/in,
21:u:tok:3:+0:found/in/4,
14:u:tok:1:-2:was,
16:u:tok:1:-1:found,
12:u:tok:1:+1:4,
19:u:tok:2:-1:found/in,
15:u:tok:2:+0:in/4,
23:u:tok:3:-2:was/found/in,
21:u:tok:3:-1:found/in/4,
18:u:tok:3:+0:in/4/of,
16:u:tok:1:-2:found,
12:u:tok:1:+0:4,
15:u:tok:2:-1:in/4,
15:u:tok:2:+0:4/of,
21:u:tok:3:-2:found/in/4,
18:u:tok:3:-1:in/4/of,
23:u:tok:3:+0:4/of/122,848,
14:u:pre:1:+0:2:4,
14:u:suf:1:+0:2:4,
12:u:tok:1:-1:4,
15:u:tok:2:-1:4/of,
18:u:tok:3:-2:in/4/of,
23:u:tok:3:-1:4/of/122,848,
12:u:tok:1:-2:4,
23:u:tok:3:-2:4/of/122,848,
29:u:tok:3:+0:122,848/alleles/in,
15:u:tok:1:+2:this,
21:u:tok:2:+0:alleles/in,
29:u:tok:3:-1:122,848/alleles/in,
26:u:tok:3:+0:alleles/in/this,
15:u:tok:1:+1:this,
21:u:tok:2:-1:alleles/in,
18:u:tok:2:+0:in/this,
29:u:tok:3:-2:122,848/alleles/in,
26:u:tok:3:-1:alleles/in/this,
27:u:tok:3:+0:in/this/database,
15:u:tok:1:+0:this,
18:u:tok:2:-1:in/this,
24:u:tok:2:+0:this/database,
26:u:tok:3:-2:alleles/in/this,
27:u:tok:3:-1:in/this/database,
26:u:tok:3:+0:this/database/;,
15:u:suf:1:+0:2:is,
15:u:tok:1:-1:this,
14:u:tok:1:+2:all,
24:u:tok:2:-1:this/database,
21:u:tok:2:+0:database/;,
27:u:tok:3:-2:in/this/database,
26:u:tok:3:-1:this/database/;,
25:u:tok:3:+0:database/;/all,
15:u:tok:1:-2:this,
14:u:tok:1:+1:all,
19:u:tok:1:+2:controls,
21:u:tok:2:-1:database/;,
16:u:tok:2:+0:;/all,
26:u:tok:3:-2:this/database/;,
25:u:tok:3:-1:database/;/all,
25:u:tok:3:+0:;/all/controls,
14:u:tok:1:+0:all,
19:u:tok:1:+1:controls,
15:u:tok:1:+2:were,
16:u:tok:2:-1:;/all,
23:u:tok:2:+0:all/controls,
25:u:tok:3:-2:database/;/all,
25:u:tok:3:-1:;/all/controls,
28:u:tok:3:+0:all/controls/were,
15:u:suf:1:+0:2:ll,
14:u:tok:1:-1:all,
19:u:tok:1:+0:controls,
15:u:tok:1:+1:were,
23:u:tok:2:-1:all/controls,
24:u:tok:2:+0:controls/were,
25:u:tok:3:-2:;/all/controls,
28:u:tok:3:-1:all/controls/were,
37:u:tok:3:+0:controls/were/heterozygous,
15:u:suf:1:+0:2:ls,
14:u:tok:1:-2:all,
19:u:tok:1:-1:controls,
15:u:tok:1:+0:were,
14:u:tok:1:+2:for,
24:u:tok:2:-1:controls/were,
28:u:tok:2:+0:were/heterozygous,
28:u:tok:3:-2:all/controls/were,
37:u:tok:3:-1:controls/were/heterozygous,
32:u:tok:3:+0:were/heterozygous/for,
15:u:pre:1:+0:2:we,
19:u:tok:1:-2:controls,
15:u:tok:1:-1:were,
14:u:tok:1:+1:for,
28:u:tok:2:-1:were/heterozygous,
27:u:tok:2:+0:heterozygous/for,
37:u:tok:3:-2:controls/were/heterozygous,
32:u:tok:3:-1:were/heterozygous/for,
31:u:tok:3:+0:heterozygous/for/the,
15:u:tok:1:-2:were,
14:u:tok:1:+0:for,
27:u:tok:2:-1:heterozygous/for,
18:u:tok:2:+0:for/the,
32:u:tok:3:-2:were/heterozygous/for,
31:u:tok:3:-1:heterozygous/for/the,
28:u:tok:3:+0:for/the/mutations,
14:u:tok:1:-1:for,
18:u:tok:2:-1:for/the,
24:u:tok:2:+0:the/mutations,
31:u:tok:3:-2:heterozygous/for/the,
28:u:tok:3:-1:for/the/mutations,
26:u:tok:3:+0:the/mutations/.,
14:u:tok:1:-2:for,
24:u:tok:2:-1:the/mutations,
22:u:tok:2:+0:mutations/.,
28:u:tok:3:-2:for/the/mutations,
26:u:tok:3:-1:the/mutations/.,
27:u:tok:3:+0:mutations/./_x+1,
22:u:tok:2:-1:mutations/.,
26:u:tok:3:-2:the/mutations/.,
27:u:tok:3:-1:mutations/./_x+1,
16:u:tok:1:+1:vitro,
21:u:tok:1:+2:functional,
19:u:tok:2:+0:in/vitro,
24:u:tok:3:-1:_x-1/in/vitro,
30:u:tok:3:+0:in/vitro/functional,
16:u:tok:1:+0:vitro,
21:u:tok:1:+1:functional,
21:u:tok:1:+2:expression,
19:u:tok:2:-1:in/vitro,
27:u:tok:2:+0:vitro/functional,
24:u:tok:3:-2:_x-1/in/vitro,
30:u:tok:3:-1:in/vitro/functional,
38:u:tok:3:+0:vitro/functional/expression,
15:u:pre:1:+0:2:vi,
15:u:suf:1:+0:2:ro,
16:u:tok:1:-1:vitro,
21:u:tok:1:+0:functional,
21:u:tok:1:+1:expression,
18:u:tok:1:+2:studies,
27:u:tok:2:-1:vitro/functional,
32:u:tok:2:+0:functional/expression,
30:u:tok:3:-2:in/vitro/functional,
38:u:tok:3:-1:vitro/functional/expression,
40:u:tok:3:+0:functional/expression/studies,
15:u:pre:1:+0:2:fu,
16:u:tok:1:-2:vitro,
21:u:tok:1:-1:functional,
18:u:tok:1:+1:studies,
20:u:tok:1:+2:indicated,
32:u:tok:2:-1:functional/expression,
29:u:tok:2:+0:expression/studies,
38:u:tok:3:-2:vitro/functional/expression,
40:u:tok:3:-1:functional/expression/studies,
39:u:tok:3:+0:expression/studies/indicated,
21:u:tok:1:-2:functional,
18:u:tok:1:+0:studies,
20:u:tok:1:+1:indicated,
29:u:tok:2:-1:expression/studies,
28:u:tok:2:+0:studies/indicated,
40:u:tok:3:-2:functional/expression/studies,
39:u:tok:3:-1:expression/studies/indicated,
33:u:tok:3:+0:studies/indicated/that,
15:u:pre:1:+0:2:st,
18:u:tok:1:-1:studies,
20:u:tok:1:+0:indicated,
28:u:tok:2:-1:studies/indicated,
25:u:tok:2:+0:indicated/that,
39:u:tok:3:-2:expression/studies/indicated,
33:u:tok:3:-1:studies/indicated/that,
29:u:tok:3:+0:indicated/that/the,
18:u:tok:1:-2:studies,
20:u:tok:1:-1:indicated,
25:u:tok:2:-1:indicated/that,
19:u:tok:2:+0:that/the,
33:u:tok:3:-2:studies/indicated/that,
29:u:tok:3:-1:indicated/that/the,
25:u:tok:3:+0:that/the/r408g,
20:u:tok:1:-2:indicated,
17:u:tok:1:+2:mutant,
19:u:tok:2:-1:that/the,
29:u:tok:3:-2:indicated/that/the,
25:u:tok:3:-1:that/the/r408g,
27:u:tok:3:+0:the/r408g/mutant,
17:u:tok:1:+1:mutant,
18:u:tok:1:+2:protein,
23:u:tok:2:+0:r408g/mutant,
25:u:tok:3:-2:that/the/r408g,
27:u:tok:3:-1:the/r408g/mutant,
31:u:tok:3:+0:r408g/mutant/protein,
17:u:tok:1:+0:mutant,
18:u:tok:1:+1:protein,
23:u:tok:2:-1:r408g/mutant,
25:u:tok:2:+0:mutant/protein,
27:u:tok:3:-2:the/r408g/mutant,
31:u:tok:3:-1:r408g/mutant/protein,
29:u:tok:3:+0:mutant/protein/had,
17:u:tok:1:-1:mutant,
18:u:tok:1:+0:protein,
20:u:tok:1:+2:decreased,
25:u:tok:2:-1:mutant/protein,
22:u:tok:2:+0:protein/had,
31:u:tok:3:-2:r408g/mutant/protein,
29:u:tok:3:-1:mutant/protein/had,
32:u:tok:3:+0:protein/had/decreased,
15:u:pre:1:+0:2:pr,
17:u:tok:1:-2:mutant,
18:u:tok:1:-1:protein,
20:u:tok:1:+1:decreased,
17:u:tok:1:+2:atpase,
22:u:tok:2:-1:protein/had,
24:u:tok:2:+0:had/decreased,
29:u:tok:3:-2:mutant/protein/had,
32:u:tok:3:-1:protein/had/decreased,
31:u:tok:3:+0:had/decreased/atpase,
18:u:tok:1:-2:protein,
20:u:tok:1:+0:decreased,
17:u:tok:1:+1:atpase,
24:u:tok:2:-1:had/decreased,
27:u:tok:2:+0:decreased/atpase,
32:u:tok:3:-2:protein/had/decreased,
31:u:tok:3:-1:had/decreased/atpase,
36:u:tok:3:+0:decreased/atpase/activity,
15:u:pre:1:+0:2:de,
20:u:tok:1:-1:decreased,
17:u:tok:1:+0:atpase,
27:u:tok:2:-1:decreased/atpase,
26:u:tok:2:+0:atpase/activity,
31:u:tok:3:-2:had/decreased/atpase,
36:u:tok:3:-1:decreased/atpase/activity,
29:u:tok:3:+0:atpase/activity/at,
20:u:tok:1:-2:decreased,
17:u:tok:1:-1:atpase,
13:u:tok:1:+2:26,
26:u:tok:2:-1:atpase/activity,
22:u:tok:2:+0:activity/at,
36:u:tok:3:-2:decreased/atpase/activity,
29:u:tok:3:-1:atpase/activity/at,
25:u:tok:3:+0:activity/at/26,
17:u:tok:1:-2:atpase,
13:u:tok:1:+1:26,
22:u:tok:2:-1:activity/at,
16:u:tok:2:+0:at/26,
29:u:tok:3:-2:atpase/activity/at,
25:u:tok:3:-1:activity/at/26,
18:u:tok:3:+0:at/26/%,
19:u:tok:1:-2:activity,
13:u:tok:1:+0:26,
16:u:tok:2:-1:at/26,
15:u:tok:2:+0:26/%,
25:u:tok:3:-2:activity/at/26,
18:u:tok:3:-1:at/26/%,
18:u:tok:3:+0:26/%/of,
15:u:pre:1:+0:2:26,
15:u:suf:1:+0:2:26,
13:u:tok:1:-1:26,
19:u:tok:1:+2:wildtype,
15:u:tok:2:-1:26/%,
15:u:tok:2:+0:%/of,
18:u:tok:3:-2:at/26/%,
18:u:tok:3:-1:26/%/of,
24:u:tok:3:+0:%/of/wildtype,
13:u:tok:1:-2:26,
19:u:tok:1:+1:wildtype,
15:u:tok:2:-1:%/of,
22:u:tok:2:+0:of/wildtype,
18:u:tok:3:-2:26/%/of,
24:u:tok:3:-1:%/of/wildtype,
24:u:tok:3:+0:of/wildtype/.,
19:u:tok:1:+0:wildtype,
22:u:tok:2:-1:of/wildtype,
21:u:tok:2:+0:wildtype/.,
24:u:tok:3:-2:%/of/wildtype,
24:u:tok:3:-1:of/wildtype/.,
26:u:tok:3:+0:wildtype/./_x+1,
15:u:suf:1:+0:2:pe,
19:u:tok:1:-1:wildtype,
21:u:tok:2:-1:wildtype/.,
24:u:tok:3:-2:of/wildtype/.,
26:u:tok:3:-1:wildtype/./_x+1,
23:u:tok:3:+0:of/the/r408g,
23:u:tok:3:-1:of/the/r408g,
17:u:tok:1:+2:allele,
23:u:tok:3:-2:of/the/r408g,
30:u:tok:3:+0:r408g/mutant/allele,
17:u:tok:1:+1:allele,
24:u:tok:2:+0:mutant/allele,
30:u:tok:3:-1:r408g/mutant/allele,
28:u:tok:3:+0:mutant/allele/was,
17:u:tok:1:+0:allele,
17:u:tok:1:+2:unable,
24:u:tok:2:-1:mutant/allele,
21:u:tok:2:+0:allele/was,
30:u:tok:3:-2:r408g/mutant/allele,
28:u:tok:3:-1:mutant/allele/was,
28:u:tok:3:+0:allele/was/unable,
17:u:tok:1:-1:allele,
17:u:tok:1:+1:unable,
13:u:tok:1:+2:to,
21:u:tok:2:-1:allele/was,
21:u:tok:2:+0:was/unable,
28:u:tok:3:-2:mutant/allele/was,
28:u:tok:3:-1:allele/was/unable,
24:u:tok:3:+0:was/unable/to,
17:u:tok:1:-2:allele,
17:u:tok:1:+0:unable,
13:u:tok:1:+1:to,
21:u:tok:2:-1:was/unable,
20:u:tok:2:+0:unable/to,
28:u:tok:3:-2:allele/was/unable,
24:u:tok:3:-1:was/unable/to,
27:u:tok:3:+0:unable/to/rescue,
15:u:pre:1:+0:2:un,
17:u:tok:1:-1:unable,
13:u:tok:1:+0:to,
20:u:tok:2:-1:unable/to,
20:u:tok:2:+0:to/rescue,
24:u:tok:3:-2:was/unable/to,
27:u:tok:3:-1:unable/to/rescue,
31:u:tok:3:+0:to/rescue/morpholino,
15:u:pre:1:+0:2:to,
15:u:suf:1:+0:2:to,
17:u:tok:1:-2:unable,
13:u:tok:1:-1:to,
20:u:tok:2:-1:to/rescue,
27:u:tok:3:-2:unable/to/rescue,
31:u:tok:3:-1:to/rescue/morpholino,
13:u:tok:1:-2:to,
31:u:tok:3:-2:to/rescue/morpholino,
31:u:tok:3:+0:suggesting/that/this,
18:u:tok:1:+2:variant,
20:u:tok:2:+0:that/this,
31:u:tok:3:-1:suggesting/that/this,
28:u:tok:3:+0:that/this/variant,
18:u:tok:1:+1:variant,
14:u:tok:1:+2:has,
20:u:tok:2:-1:that/this,
23:u:tok:2:+0:this/variant,
31:u:tok:3:-2:suggesting/that/this,
28:u:tok:3:-1:that/this/variant,
27:u:tok:3:+0:this/variant/has,
18:u:tok:1:+0:variant,
14:u:tok:1:+1:has,
23:u:tok:2:-1:this/variant,
22:u:tok:2:+0:variant/has,
28:u:tok:3:-2:that/this/variant,
27:u:tok:3:-1:this/variant/has,
32:u:tok:3:+0:variant/has/decreased,
18:u:tok:1:-1:variant,
14:u:tok:1:+0:has,
22:u:tok:2:-1:variant/has,
24:u:tok:2:+0:has/decreased,
27:u:tok:3:-2:this/variant/has,
32:u:tok:3:-1:variant/has/decreased,
33:u:tok:3:+0:has/decreased/residual,
18:u:tok:1:-2:variant,
14:u:tok:1:-1:has,
24:u:tok:2:-1:has/decreased,
29:u:tok:2:+0:decreased/residual,
32:u:tok:3:-2:variant/has/decreased,
33:u:tok:3:-1:has/decreased/residual,
38:u:tok:3:+0:decreased/residual/activity,
14:u:tok:1:-2:has,
29:u:tok:2:-1:decreased/residual,
33:u:tok:3:-2:has/decreased/residual,
38:u:tok:3:-1:decreased/residual/activity,
38:u:tok:3:-2:decreased/residual/activity,
19:u:tok:1:+2:patients,
20:u:tok:3:-1:_x-1/in/4,
24:u:tok:3:+0:in/4/patients,
19:u:tok:1:+1:patients,
21:u:tok:2:+0:4/patients,
20:u:tok:3:-2:_x-1/in/4,
24:u:tok:3:-1:in/4/patients,
23:u:tok:3:+0:4/patients/,,
19:u:tok:1:+0:patients,
20:u:tok:1:+2:including,
21:u:tok:2:-1:4/patients,
21:u:tok:2:+0:patients/,,
24:u:tok:3:-2:in/4/patients,
23:u:tok:3:-1:4/patients/,,
31:u:tok:3:+0:patients/,/including,
15:u:pre:1:+0:2:pa,
19:u:tok:1:-1:patients,
20:u:tok:1:+1:including,
21:u:tok:2:-1:patients/,,
22:u:tok:2:+0:,/including,
23:u:tok:3:-2:4/patients/,,
31:u:tok:3:-1:patients/,/including,
24:u:tok:3:+0:,/including/a,
19:u:tok:1:-2:patients,
20:u:tok:1:+0:including,
15:u:tok:1:+2:pair,
22:u:tok:2:-1:,/including,
22:u:tok:2:+0:including/a,
31:u:tok:3:-2:patients/,/including,
24:u:tok:3:-1:,/including/a,
27:u:tok:3:+0:including/a/pair,
20:u:tok:1:-1:including,
15:u:tok:1:+1:pair,
22:u:tok:2:-1:including/a,
17:u:tok:2:+0:a/pair,
24:u:tok:3:-2:,/including/a,
27:u:tok:3:-1:including/a/pair,
20:u:tok:3:+0:a/pair/of,
20:u:tok:1:-2:including,
15:u:tok:1:+0:pair,
17:u:tok:2:-1:a/pair,
18:u:tok:2:+0:pair/of,
27:u:tok:3:-2:including/a/pair,
20:u:tok:3:-1:a/pair/of,
23:u:tok:3:+0:pair/of/sibs,
15:u:suf:1:+0:2:ir,
15:u:tok:1:-1:pair,
18:u:tok:2:-1:pair/of,
18:u:tok:2:+0:of/sibs,
20:u:tok:3:-2:a/pair/of,
23:u:tok:3:-1:pair/of/sibs,
20:u:tok:3:+0:of/sibs/,,
15:u:tok:1:-2:pair,
15:u:tok:1:+2:from,
18:u:tok:2:-1:of/sibs,
17:u:tok:2:+0:sibs/,,
23:u:tok:3:-2:pair/of/sibs,
20:u:tok:3:-1:of/sibs/,,
22:u:tok:3:+0:sibs/,/from,
15:u:tok:1:+1:from,
20:u:tok:1:+2:greenland,
17:u:tok:2:-1:sibs/,,
17:u:tok:2:+0:,/from,
20:u:tok:3:-2:of/sibs/,,
22:u:tok:3:-1:sibs/,/from,
27:u:tok:3:+0:,/from/greenland,
15:u:tok:1:+0:from,
20:u:tok:1:+1:greenland,
17:u:tok:2:-1:,/from,
25:u:tok:2:+0:from/greenland,
22:u:tok:3:-2:sibs/,/from,
27:u:tok:3:-1:,/from/greenland,
27:u:tok:3:+0:from/greenland/,,
15:u:suf:1:+0:2:om,
15:u:tok:1:-1:from,
20:u:tok:1:+0:greenland,
25:u:tok:2:-1:from/greenland,
22:u:tok:2:+0:greenland/,,
27:u:tok:3:-2:,/from/greenland,
27:u:tok:3:-1:from/greenland/,,
27:u:tok:3:+0:greenland/,/with,
15:u:pre:1:+0:2:gr,
15:u:tok:1:-2:from,
20:u:tok:1:-1:greenland,
13:u:tok:1:+2:3-,
22:u:tok:2:-1:greenland/,,
17:u:tok:2:+0:,/with,
27:u:tok:3:-2:from/greenland/,,
27:u:tok:3:-1:greenland/,/with,
20:u:tok:3:+0:,/with/3-,
20:u:tok:1:-2:greenland,
13:u:tok:1:+1:3-,
27:u:tok:1:+2:methylglutaconic,
17:u:tok:2:-1:,/with,
18:u:tok:2:+0:with/3-,
27:u:tok:3:-2:greenland/,/with,
20:u:tok:3:-1:,/with/3-,
35:u:tok:3:+0:with/3-/methylglutaconic,
13:u:tok:1:+0:3-,
27:u:tok:1:+1:methylglutaconic,
18:u:tok:2:-1:with/3-,
30:u:tok:2:+0:3-/methylglutaconic,
20:u:tok:3:-2:,/with/3-,
35:u:tok:3:-1:with/3-/methylglutaconic,
39:u:tok:3:+0:3-/methylglutaconic/aciduria,
15:u:suf:1:+0:2:3-,
13:u:tok:1:-1:3-,
27:u:tok:1:+0:methylglutaconic,
30:u:tok:2:-1:3-/methylglutaconic,
36:u:tok:2:+0:methylglutaconic/aciduria,
35:u:tok:3:-2:with/3-/methylglutaconic,
39:u:tok:3:-1:3-/methylglutaconic/aciduria,
41:u:tok:3:+0:methylglutaconic/aciduria/with,
13:u:tok:1:-2:3-,
27:u:tok:1:-1:methylglutaconic,
36:u:tok:2:-1:methylglutaconic/aciduria,
39:u:tok:3:-2:3-/methylglutaconic/aciduria,
41:u:tok:3:-1:methylglutaconic/aciduria/with,
27:u:tok:1:-2:methylglutaconic,
41:u:tok:3:-2:methylglutaconic/aciduria/with,
19:u:tok:1:+2:saunders,
23:u:tok:3:+0:)/,/saunders,
19:u:tok:1:+1:saunders,
21:u:tok:2:+0:,/saunders,
23:u:tok:3:-1:)/,/saunders,
24:u:tok:3:+0:,/saunders/et,
19:u:tok:1:+0:saunders,
21:u:tok:2:-1:,/saunders,
22:u:tok:2:+0:saunders/et,
23:u:tok:3:-2:)/,/saunders,
24:u:tok:3:-1:,/saunders/et,
25:u:tok:3:+0:saunders/et/al,
15:u:pre:1:+0:2:sa,
15:u:suf:1:+0:2:rs,
19:u:tok:1:-1:saunders,
22:u:tok:2:-1:saunders/et,
24:u:tok:3:-2:,/saunders/et,
25:u:tok:3:-1:saunders/et/al,
19:u:tok:1:-2:saunders,
25:u:tok:3:-2:saunders/et/al,
25:u:tok:3:+0:)/identified/a,
21:u:tok:1:+2:homozygous,
23:u:tok:2:+0:identified/a,
25:u:tok:3:-1:)/identified/a,
34:u:tok:3:+0:identified/a/homozygous,
21:u:tok:1:+1:homozygous,
19:u:tok:1:+2:c.803c-t,
23:u:tok:2:-1:identified/a,
23:u:tok:2:+0:a/homozygous,
25:u:tok:3:-2:)/identified/a,
34:u:tok:3:-1:identified/a/homozygous,
32:u:tok:3:+0:a/homozygous/c.803c-t,
21:u:tok:1:+0:homozygous,
19:u:tok:1:+1:c.803c-t,
23:u:tok:2:-1:a/homozygous,
30:u:tok:2:+0:homozygous/c.803c-t,
34:u:tok:3:-2:identified/a/homozygous,
32:u:tok:3:-1:a/homozygous/c.803c-t,
41:u:tok:3:+0:homozygous/c.803c-t/transition,
15:u:pre:1:+0:2:ho,
21:u:tok:1:-1:homozygous,
19:u:tok:1:+0:c.803c-t,
30:u:tok:2:-1:homozygous/c.803c-t,
30:u:tok:2:+0:c.803c-t/transition,
32:u:tok:3:-2:a/homozygous/c.803c-t,
41:u:tok:3:-1:homozygous/c.803c-t/transition,
32:u:tok:3:+0:c.803c-t/transition/(,
21:u:tok:1:-2:homozygous,
19:u:tok:1:-1:c.803c-t,
22:u:tok:1:+2:rs200032855,
30:u:tok:2:-1:c.803c-t/transition,
41:u:tok:3:-2:homozygous/c.803c-t/transition,
32:u:tok:3:-1:c.803c-t/transition/(,
35:u:tok:3:+0:transition/(/rs200032855,
19:u:tok:1:-2:c.803c-t,
22:u:tok:1:+1:rs200032855,
24:u:tok:2:+0:(/rs200032855,
32:u:tok:3:-2:c.803c-t/transition/(,
35:u:tok:3:-1:transition/(/rs200032855,
26:u:tok:3:+0:(/rs200032855/),
22:u:tok:1:+0:rs200032855,
24:u:tok:2:-1:(/rs200032855,
24:u:tok:2:+0:rs200032855/),
35:u:tok:3:-2:transition/(/rs200032855,
26:u:tok:3:-1:(/rs200032855/),
27:u:tok:3:+0:rs200032855/)/in,
15:u:pre:1:+0:2:rs,
15:u:suf:1:+0:2:55,
22:u:tok:1:-1:rs200032855,
24:u:tok:2:-1:rs200032855/),
26:u:tok:3:-2:(/rs200032855/),
27:u:tok:3:-1:rs200032855/)/in,
22:u:tok:1:-2:rs200032855,
27:u:tok:3:-2:rs200032855/)/in,
22:u:tok:3:+0:clpb/gene/,,
17:u:tok:2:+0:gene/,,
22:u:tok:3:-1:clpb/gene/,,
27:u:tok:3:+0:gene/,/resulting,
17:u:tok:2:-1:gene/,,
22:u:tok:3:-2:clpb/gene/,,
27:u:tok:3:-1:gene/,/resulting,
27:u:tok:3:-2:gene/,/resulting,
24:u:tok:1:+2:thr268-to-met,
29:u:tok:3:+0:in/a/thr268-to-met,
24:u:tok:1:+1:thr268-to-met,
26:u:tok:2:+0:a/thr268-to-met,
29:u:tok:3:-1:in/a/thr268-to-met,
28:u:tok:3:+0:a/thr268-to-met/(,
24:u:tok:1:+0:thr268-to-met,
16:u:tok:1:+2:t268m,
26:u:tok:2:-1:a/thr268-to-met,
26:u:tok:2:+0:thr268-to-met/(,
29:u:tok:3:-2:in/a/thr268-to-met,
28:u:tok:3:-1:a/thr268-to-met/(,
32:u:tok:3:+0:thr268-to-met/(/t268m,
24:u:tok:1:-1:thr268-to-met,
16:u:tok:1:+1:t268m,
26:u:tok:2:-1:thr268-to-met/(,
18:u:tok:2:+0:(/t268m,
28:u:tok:3:-2:a/thr268-to-met/(,
32:u:tok:3:-1:thr268-to-met/(/t268m,
20:u:tok:3:+0:(/t268m/),
24:u:tok:1:-2:thr268-to-met,
16:u:tok:1:+0:t268m,
18:u:tok:2:-1:(/t268m,
18:u:tok:2:+0:t268m/),
32:u:tok:3:-2:thr268-to-met/(/t268m,
20:u:tok:3:-1:(/t268m/),
31:u:tok:3:+0:t268m/)/substitution,
15:u:pre:1:+0:2:t2,
15:u:suf:1:+0:2:8m,
16:u:tok:1:-1:t268m,
18:u:tok:2:-1:t268m/),
20:u:tok:3:-2:(/t268m/),
31:u:tok:3:-1:t268m/)/substitution,
16:u:tok:1:-2:t268m,
31:u:tok:3:-2:t268m/)/substitution,
12:u:tok:1:+2:1,
23:u:tok:3:+0:residue/in/1,
12:u:tok:1:+1:1,
15:u:tok:2:+0:in/1,
23:u:tok:3:-1:residue/in/1,
18:u:tok:3:+0:in/1/of,
12:u:tok:1:+0:1,
15:u:tok:2:-1:in/1,
15:u:tok:2:+0:1/of,
23:u:tok:3:-2:residue/in/1,
18:u:tok:3:-1:in/1/of,
19:u:tok:3:+0:1/of/the,
14:u:pre:1:+0:2:1,
14:u:suf:1:+0:2:1,
12:u:tok:1:-1:1,
18:u:tok:1:+2:ankyrin,
15:u:tok:2:-1:1/of,
18:u:tok:3:-2:in/1/of,
19:u:tok:3:-1:1/of/the,
25:u:tok:3:+0:of/the/ankyrin,
12:u:tok:1:-2:1,
18:u:tok:1:+1:ankyrin,
18:u:tok:1:+2:domains,
22:u:tok:2:+0:the/ankyrin,
19:u:tok:3:-2:1/of/the,
25:u:tok:3:-1:of/the/ankyrin,
30:u:tok:3:+0:the/ankyrin/domains,
18:u:tok:1:+0:ankyrin,
18:u:tok:1:+1:domains,
22:u:tok:2:-1:the/ankyrin,
26:u:tok:2:+0:ankyrin/domains,
25:u:tok:3:-2:of/the/ankyrin,
30:u:tok:3:-1:the/ankyrin/domains,
28:u:tok:3:+0:ankyrin/domains/.,
18:u:tok:1:-1:ankyrin,
18:u:tok:1:+0:domains,
26:u:tok:2:-1:ankyrin/domains,
20:u:tok:2:+0:domains/.,
30:u:tok:3:-2:the/ankyrin/domains,
28:u:tok:3:-1:ankyrin/domains/.,
25:u:tok:3:+0:domains/./_x+1,
18:u:tok:1:-2:ankyrin,
18:u:tok:1:-1:domains,
20:u:tok:2:-1:domains/.,
28:u:tok:3:-2:ankyrin/domains/.,
25:u:tok:3:-1:domains/./_x+1,
23:u:tok:2:+0:the/mutation,
28:u:tok:3:-1:_x-1/the/mutation,
25:u:tok:3:+0:the/mutation/,,
16:u:tok:1:+2:which,
23:u:tok:2:-1:the/mutation,
21:u:tok:2:+0:mutation/,,
28:u:tok:3:-2:_x-1/the/mutation,
25:u:tok:3:-1:the/mutation/,,
27:u:tok:3:+0:mutation/,/which,
16:u:tok:1:+1:which,
21:u:tok:2:-1:mutation/,,
18:u:tok:2:+0:,/which,
25:u:tok:3:-2:the/mutation/,,
27:u:tok:3:-1:mutation/,/which,
22:u:tok:3:+0:,/which/was,
16:u:tok:1:+0:which,
18:u:tok:2:-1:,/which,
20:u:tok:2:+0:which/was,
27:u:tok:3:-2:mutation/,/which,
22:u:tok:3:-1:,/which/was,
26:u:tok:3:+0:which/was/found,
15:u:pre:1:+0:2:wh,
15:u:suf:1:+0:2:ch,
16:u:tok:1:-1:which,
13:u:tok:1:+2:by,
20:u:tok:2:-1:which/was,
22:u:tok:3:-2:,/which/was,
26:u:tok:3:-1:which/was/found,
23:u:tok:3:+0:was/found/by,
16:u:tok:1:-2:which,
13:u:tok:1:+1:by,
23:u:tok:1:+2:homozygosity,
19:u:tok:2:+0:found/by,
26:u:tok:3:-2:which/was/found,
23:u:tok:3:-1:was/found/by,
32:u:tok:3:+0:found/by/homozygosity,
13:u:tok:1:+0:by,
23:u:tok:1:+1:homozygosity,
18:u:tok:1:+2:mapping,
19:u:tok:2:-1:found/by,
26:u:tok:2:+0:by/homozygosity,
23:u:tok:3:-2:was/found/by,
32:u:tok:3:-1:found/by/homozygosity,
34:u:tok:3:+0:by/homozygosity/mapping,
15:u:pre:1:+0:2:by,
15:u:suf:1:+0:2:by,
13:u:tok:1:-1:by,
23:u:tok:1:+0:homozygosity,
18:u:tok:1:+1:mapping,
26:u:tok:2:-1:by/homozygosity,
31:u:tok:2:+0:homozygosity/mapping,
32:u:tok:3:-2:found/by/homozygosity,
34:u:tok:3:-1:by/homozygosity/mapping,
35:u:tok:3:+0:homozygosity/mapping/and,
13:u:tok:1:-2:by,
23:u:tok:1:-1:homozygosity,
18:u:tok:1:+0:mapping,
20:u:tok:1:+2:candidate,
31:u:tok:2:-1:homozygosity/mapping,
22:u:tok:2:+0:mapping/and,
34:u:tok:3:-2:by/homozygosity/mapping,
35:u:tok:3:-1:homozygosity/mapping/and,
32:u:tok:3:+0:mapping/and/candidate,
15:u:pre:1:+0:2:ma,
23:u:tok:1:-2:homozygosity,
18:u:tok:1:-1:mapping,
20:u:tok:1:+1:candidate,
22:u:tok:2:-1:mapping/and,
24:u:tok:2:+0:and/candidate,
35:u:tok:3:-2:homozygosity/mapping/and,
32:u:tok:3:-1:mapping/and/candidate,
29:u:tok:3:+0:and/candidate/gene,
18:u:tok:1:-2:mapping,
20:u:tok:1:+0:candidate,
21:u:tok:1:+2:sequencing,
24:u:tok:2:-1:and/candidate,
25:u:tok:2:+0:candidate/gene,
32:u:tok:3:-2:mapping/and/candidate,
29:u:tok:3:-1:and/candidate/gene,
36:u:tok:3:+0:candidate/gene/sequencing,
15:u:suf:1:+0:2:te,
20:u:tok:1:-1:candidate,
21:u:tok:1:+1:sequencing,
25:u:tok:2:-1:candidate/gene,
26:u:tok:2:+0:gene/sequencing,
29:u:tok:3:-2:and/candidate/gene,
36:u:tok:3:-1:candidate/gene/sequencing,
28:u:tok:3:+0:gene/sequencing/,,
20:u:tok:1:-2:candidate,
21:u:tok:1:+0:sequencing,
21:u:tok:1:+2:segregated,
26:u:tok:2:-1:gene/sequencing,
23:u:tok:2:+0:sequencing/,,
36:u:tok:3:-2:candidate/gene/sequencing,
28:u:tok:3:-1:gene/sequencing/,,
34:u:tok:3:+0:sequencing/,/segregated,
21:u:tok:1:-1:sequencing,
21:u:tok:1:+1:segregated,
23:u:tok:2:-1:sequencing/,,
23:u:tok:2:+0:,/segregated,
28:u:tok:3:-2:gene/sequencing/,,
34:u:tok:3:-1:sequencing/,/segregated,
28:u:tok:3:+0:,/segregated/with,
21:u:tok:1:-2:sequencing,
21:u:tok:1:+0:segregated,
23:u:tok:2:-1:,/segregated,
26:u:tok:2:+0:segregated/with,
34:u:tok:3:-2:sequencing/,/segregated,
28:u:tok:3:-1:,/segregated/with,
30:u:tok:3:+0:segregated/with/the,
21:u:tok:1:-1:segregated,
19:u:tok:1:+2:disorder,
26:u:tok:2:-1:segregated/with,
19:u:tok:2:+0:with/the,
28:u:tok:3:-2:,/segregated/with,
30:u:tok:3:-1:segregated/with/the,
28:u:tok:3:+0:with/the/disorder,
21:u:tok:1:-2:segregated,
19:u:tok:1:+1:disorder,
19:u:tok:2:-1:with/the,
23:u:tok:2:+0:the/disorder,
30:u:tok:3:-2:segregated/with/the,
28:u:tok:3:-1:with/the/disorder,
26:u:tok:3:+0:the/disorder/in,
19:u:tok:1:+0:disorder,
23:u:tok:2:-1:the/disorder,
22:u:tok:2:+0:disorder/in,
28:u:tok:3:-2:with/the/disorder,
26:u:tok:3:-1:the/disorder/in,
24:u:tok:3:+0:disorder/in/1,
15:u:pre:1:+0:2:di,
19:u:tok:1:-1:disorder,
22:u:tok:2:-1:disorder/in,
26:u:tok:3:-2:the/disorder/in,
24:u:tok:3:-1:disorder/in/1,
19:u:tok:1:-2:disorder,
24:u:tok:3:-2:disorder/in/1,
19:u:tok:1:+2:families,
26:u:tok:3:+0:of/the/families,
19:u:tok:1:+1:families,
23:u:tok:2:+0:the/families,
26:u:tok:3:-1:of/the/families,
25:u:tok:3:+0:the/families/.,
19:u:tok:1:+0:families,
23:u:tok:2:-1:the/families,
21:u:tok:2:+0:families/.,
26:u:tok:3:-2:of/the/families,
25:u:tok:3:-1:the/families/.,
26:u:tok:3:+0:families/./_x+1,
15:u:pre:1:+0:2:fa,
19:u:tok:1:-1:families,
21:u:tok:2:-1:families/.,
25:u:tok:3:-2:the/families/.,
26:u:tok:3:-1:families/./_x+1,
18:u:tok:1:+1:carrier,
22:u:tok:2:+0:the/carrier,
27:u:tok:3:-1:_x-1/the/carrier,
32:u:tok:3:+0:the/carrier/frequency,
18:u:tok:1:+0:carrier,
22:u:tok:2:-1:the/carrier,
28:u:tok:2:+0:carrier/frequency,
27:u:tok:3:-2:_x-1/the/carrier,
32:u:tok:3:-1:the/carrier/frequency,
31:u:tok:3:+0:carrier/frequency/of,
18:u:tok:1:-1:carrier,
28:u:tok:2:-1:carrier/frequency,
32:u:tok:3:-2:the/carrier/frequency,
31:u:tok:3:-1:carrier/frequency/of,
27:u:tok:3:+0:frequency/of/the,
18:u:tok:1:-2:carrier,
31:u:tok:3:-2:carrier/frequency/of,
27:u:tok:3:-1:frequency/of/the,
26:u:tok:3:+0:of/the/mutation,
27:u:tok:3:-2:frequency/of/the,
26:u:tok:3:-1:of/the/mutation,
26:u:tok:3:+0:the/mutation/in,
22:u:tok:1:+2:greenlandic,
22:u:tok:2:+0:mutation/in,
26:u:tok:3:-2:of/the/mutation,
26:u:tok:3:-1:the/mutation/in,
34:u:tok:3:+0:mutation/in/greenlandic,
22:u:tok:1:+1:greenlandic,
22:u:tok:2:-1:mutation/in,
25:u:tok:2:+0:in/greenlandic,
26:u:tok:3:-2:the/mutation/in,
34:u:tok:3:-1:mutation/in/greenlandic,
34:u:tok:3:+0:in/greenlandic/controls,
22:u:tok:1:+0:greenlandic,
25:u:tok:2:-1:in/greenlandic,
31:u:tok:2:+0:greenlandic/controls,
34:u:tok:3:-2:mutation/in/greenlandic,
34:u:tok:3:-1:in/greenlandic/controls,
35:u:tok:3:+0:greenlandic/controls/was,
22:u:tok:1:-1:greenlandic,
31:u:tok:2:-1:greenlandic/controls,
23:u:tok:2:+0:controls/was,
34:u:tok:3:-2:in/greenlandic/controls,
35:u:tok:3:-1:greenlandic/controls/was,
29:u:tok:3:+0:controls/was/found,
22:u:tok:1:-2:greenlandic,
23:u:tok:2:-1:controls/was,
35:u:tok:3:-2:greenlandic/controls/was,
29:u:tok:3:-1:controls/was/found,
23:u:tok:3:+0:was/found/to,
13:u:tok:1:+2:be,
19:u:tok:2:+0:found/to,
29:u:tok:3:-2:controls/was/found,
23:u:tok:3:-1:was/found/to,
22:u:tok:3:+0:found/to/be,
13:u:tok:1:+1:be,
14:u:tok:1:+2:3.3,
19:u:tok:2:-1:found/to,
16:u:tok:2:+0:to/be,
23:u:tok:3:-2:was/found/to,
22:u:tok:3:-1:found/to/be,
20:u:tok:3:+0:to/be/3.3,
13:u:tok:1:+0:be,
14:u:tok:1:+1:3.3,
16:u:tok:2:-1:to/be,
17:u:tok:2:+0:be/3.3,
22:u:tok:3:-2:found/to/be,
20:u:tok:3:-1:to/be/3.3,
19:u:tok:3:+0:be/3.3/%,
15:u:pre:1:+0:2:be,
15:u:suf:1:+0:2:be,
13:u:tok:1:-1:be,
14:u:tok:1:+0:3.3,
17:u:tok:2:-1:be/3.3,
16:u:tok:2:+0:3.3/%,
20:u:tok:3:-2:to/be/3.3,
19:u:tok:3:-1:be/3.3/%,
18:u:tok:3:+0:3.3/%/.,
15:u:pre:1:+0:2:3.,
15:u:suf:1:+0:2:.3,
13:u:tok:1:-2:be,
14:u:tok:1:-1:3.3,
16:u:tok:2:-1:3.3/%,
14:u:tok:2:+0:%/.,
19:u:tok:3:-2:be/3.3/%,
18:u:tok:3:-1:3.3/%/.,
19:u:tok:3:+0:%/./_x+1,
14:u:tok:1:-2:3.3,
14:u:tok:2:-1:%/.,
18:u:tok:3:-2:3.3/%/.,
19:u:tok:3:-1:%/./_x+1,
22:u:tok:2:+0:the/variant,
27:u:tok:3:-1:_x-1/the/variant,
26:u:tok:3:+0:the/variant/was,
22:u:tok:2:-1:the/variant,
22:u:tok:2:+0:variant/was,
27:u:tok:3:-2:_x-1/the/variant,
26:u:tok:3:-1:the/variant/was,
26:u:tok:3:+0:variant/was/not,
22:u:tok:2:-1:variant/was,
18:u:tok:2:+0:was/not,
26:u:tok:3:-2:the/variant/was,
26:u:tok:3:-1:variant/was/not,
24:u:tok:3:+0:was/not/found,
18:u:tok:2:-1:was/not,
20:u:tok:2:+0:not/found,
26:u:tok:3:-2:variant/was/not,
24:u:tok:3:-1:was/not/found,
23:u:tok:3:+0:not/found/in,
16:u:tok:1:+2:2,180,
20:u:tok:2:-1:not/found,
24:u:tok:3:-2:was/not/found,
23:u:tok:3:-1:not/found/in,
25:u:tok:3:+0:found/in/2,180,
16:u:tok:1:+1:2,180,
18:u:tok:1:+2:control,
19:u:tok:2:+0:in/2,180,
23:u:tok:3:-2:not/found/in,
25:u:tok:3:-1:found/in/2,180,
27:u:tok:3:+0:in/2,180/control,
16:u:tok:1:+0:2,180,
18:u:tok:1:+1:control,
18:u:tok:1:+2:samples,
19:u:tok:2:-1:in/2,180,
24:u:tok:2:+0:2,180/control,
25:u:tok:3:-2:found/in/2,180,
27:u:tok:3:-1:in/2,180/control,
32:u:tok:3:+0:2,180/control/samples,
15:u:pre:1:+0:2:2,,
15:u:suf:1:+0:2:80,
16:u:tok:1:-1:2,180,
18:u:tok:1:+0:control,
18:u:tok:1:+1:samples,
24:u:tok:2:-1:2,180/control,
26:u:tok:2:+0:control/samples,
27:u:tok:3:-2:in/2,180/control,
32:u:tok:3:-1:2,180/control/samples,
29:u:tok:3:+0:control/samples/in,
15:u:suf:1:+0:2:ol,
16:u:tok:1:-2:2,180,
18:u:tok:1:-1:control,
18:u:tok:1:+0:samples,
26:u:tok:2:-1:control/samples,
21:u:tok:2:+0:samples/in,
32:u:tok:3:-2:2,180/control/samples,
29:u:tok:3:-1:control/samples/in,
25:u:tok:3:+0:samples/in/the,
18:u:tok:1:-2:control,
18:u:tok:1:-1:samples,
15:u:tok:1:+2:u.s.,
21:u:tok:2:-1:samples/in,
29:u:tok:3:-2:control/samples/in,
25:u:tok:3:-1:samples/in/the,
22:u:tok:3:+0:in/the/u.s.,
18:u:tok:1:-2:samples,
15:u:tok:1:+1:u.s.,
19:u:tok:2:+0:the/u.s.,
25:u:tok:3:-2:samples/in/the,
22:u:tok:3:-1:in/the/u.s.,
22:u:tok:3:+0:the/u.s./or,
15:u:tok:1:+0:u.s.,
19:u:tok:2:-1:the/u.s.,
18:u:tok:2:+0:u.s./or,
22:u:tok:3:-2:in/the/u.s.,
22:u:tok:3:-1:the/u.s./or,
21:u:tok:3:+0:u.s./or/in,
15:u:pre:1:+0:2:u.,
15:u:suf:1:+0:2:s.,
15:u:tok:1:-1:u.s.,
18:u:tok:2:-1:u.s./or,
16:u:tok:2:+0:or/in,
22:u:tok:3:-2:the/u.s./or,
21:u:tok:3:-1:u.s./or/in,
20:u:tok:3:+0:or/in/the,
15:u:tok:1:-2:u.s.,
16:u:tok:2:-1:or/in,
21:u:tok:3:-2:u.s./or/in,
20:u:tok:3:-1:or/in/the,
20:u:tok:3:-2:or/in/the,
28:u:tok:3:+0:the/exome/variant,
17:u:tok:1:+2:server,
24:u:tok:2:+0:exome/variant,
28:u:tok:3:-1:the/exome/variant,
31:u:tok:3:+0:exome/variant/server,
17:u:tok:1:+1:server,
24:u:tok:2:-1:exome/variant,
25:u:tok:2:+0:variant/server,
28:u:tok:3:-2:the/exome/variant,
31:u:tok:3:-1:exome/variant/server,
34:u:tok:3:+0:variant/server/database,
17:u:tok:1:+0:server,
25:u:tok:2:-1:variant/server,
26:u:tok:2:+0:server/database,
31:u:tok:3:-2:exome/variant/server,
34:u:tok:3:-1:variant/server/database,
28:u:tok:3:+0:server/database/,,
17:u:tok:1:-1:server,
14:u:tok:1:+2:but,
26:u:tok:2:-1:server/database,
34:u:tok:3:-2:variant/server/database,
28:u:tok:3:-1:server/database/,,
25:u:tok:3:+0:database/,/but,
17:u:tok:1:-2:server,
14:u:tok:1:+1:but,
16:u:tok:2:+0:,/but,
28:u:tok:3:-2:server/database/,,
25:u:tok:3:-1:database/,/but,
20:u:tok:3:+0:,/but/was,
14:u:tok:1:+0:but,
19:u:tok:1:+2:reported,
16:u:tok:2:-1:,/but,
18:u:tok:2:+0:but/was,
25:u:tok:3:-2:database/,/but,
20:u:tok:3:-1:,/but/was,
27:u:tok:3:+0:but/was/reported,
15:u:pre:1:+0:2:bu,
15:u:suf:1:+0:2:ut,
14:u:tok:1:-1:but,
19:u:tok:1:+1:reported,
18:u:tok:2:-1:but/was,
23:u:tok:2:+0:was/reported,
20:u:tok:3:-2:,/but/was,
27:u:tok:3:-1:but/was/reported,
28:u:tok:3:+0:was/reported/with,
14:u:tok:1:-2:but,
19:u:tok:1:+0:reported,
23:u:tok:2:-1:was/reported,
24:u:tok:2:+0:reported/with,
27:u:tok:3:-2:but/was/reported,
28:u:tok:3:-1:was/reported/with,
26:u:tok:3:+0:reported/with/a,
19:u:tok:1:-1:reported,
18:u:tok:1:+2:carrier,
24:u:tok:2:-1:reported/with,
28:u:tok:3:-2:was/reported/with,
26:u:tok:3:-1:reported/with/a,
25:u:tok:3:+0:with/a/carrier,
19:u:tok:1:-2:reported,
20:u:tok:2:+0:a/carrier,
26:u:tok:3:-2:reported/with/a,
25:u:tok:3:-1:with/a/carrier,
30:u:tok:3:+0:a/carrier/frequency,
20:u:tok:2:-1:a/carrier,
25:u:tok:3:-2:with/a/carrier,
30:u:tok:3:-1:a/carrier/frequency,
30:u:tok:3:-2:a/carrier/frequency,
25:u:tok:3:+0:frequency/of/1,
14:u:tok:1:+2:out,
15:u:tok:2:+0:of/1,
25:u:tok:3:-1:frequency/of/1,
19:u:tok:3:+0:of/1/out,
14:u:tok:1:+1:out,
15:u:tok:2:-1:of/1,
16:u:tok:2:+0:1/out,
25:u:tok:3:-2:frequency/of/1,
19:u:tok:3:-1:of/1/out,
19:u:tok:3:+0:1/out/of,
14:u:tok:1:+0:out,
14:u:tok:1:+2:662,
16:u:tok:2:-1:1/out,
17:u:tok:2:+0:out/of,
19:u:tok:3:-2:of/1/out,
19:u:tok:3:-1:1/out/of,
21:u:tok:3:+0:out/of/662,
15:u:pre:1:+0:2:ou,
14:u:tok:1:-1:out,
14:u:tok:1:+1:662,
17:u:tok:2:-1:out/of,
17:u:tok:2:+0:of/662,
19:u:tok:3:-2:1/out/of,
21:u:tok:3:-1:out/of/662,
20:u:tok:3:+0:of/662/in,
14:u:tok:1:-2:out,
14:u:tok:1:+0:662,
17:u:tok:2:-1:of/662,
17:u:tok:2:+0:662/in,
21:u:tok:3:-2:out/of/662,
20:u:tok:3:-1:of/662/in,
21:u:tok:3:+0:662/in/the,
15:u:pre:1:+0:2:66,
15:u:suf:1:+0:2:62,
14:u:tok:1:-1:662,
18:u:tok:1:+2:clinseq,
17:u:tok:2:-1:662/in,
20:u:tok:3:-2:of/662/in,
21:u:tok:3:-1:662/in/the,
25:u:tok:3:+0:in/the/clinseq,
14:u:tok:1:-2:662,
18:u:tok:1:+1:clinseq,
22:u:tok:2:+0:the/clinseq,
21:u:tok:3:-2:662/in/the,
25:u:tok:3:-1:in/the/clinseq,
31:u:tok:3:+0:the/clinseq/database,
18:u:tok:1:+0:clinseq,
22:u:tok:2:-1:the/clinseq,
27:u:tok:2:+0:clinseq/database,
25:u:tok:3:-2:in/the/clinseq,
31:u:tok:3:-1:the/clinseq/database,
29:u:tok:3:+0:clinseq/database/.,
15:u:suf:1:+0:2:eq,
18:u:tok:1:-1:clinseq,
27:u:tok:2:-1:clinseq/database,
21:u:tok:2:+0:database/.,
31:u:tok:3:-2:the/clinseq/database,
29:u:tok:3:-1:clinseq/database/.,
26:u:tok:3:+0:database/./_x+1,
18:u:tok:1:-2:clinseq,
21:u:tok:2:-1:database/.,
29:u:tok:3:-2:clinseq/database/.,
26:u:tok:3:-1:database/./_x+1,
21:u:tok:1:+0:immunoblot,
19:u:tok:1:+1:analysis,
26:u:tok:2:-1:_x-1/immunoblot,
30:u:tok:2:+0:immunoblot/analysis,
31:u:tok:3:-2:_x-2/_x-1/immunoblot,
35:u:tok:3:-1:_x-1/immunoblot/analysis,
33:u:tok:3:+0:immunoblot/analysis/of,
21:u:tok:1:-1:immunoblot,
19:u:tok:1:+0:analysis,
18:u:tok:1:+2:patient,
30:u:tok:2:-1:immunoblot/analysis,
22:u:tok:2:+0:analysis/of,
35:u:tok:3:-2:_x-1/immunoblot/analysis,
33:u:tok:3:-1:immunoblot/analysis/of,
30:u:tok:3:+0:analysis/of/patient,
21:u:tok:1:-2:immunoblot,
19:u:tok:1:-1:analysis,
18:u:tok:1:+1:patient,
22:u:tok:1:+2:fibroblasts,
22:u:tok:2:-1:analysis/of,
21:u:tok:2:+0:of/patient,
33:u:tok:3:-2:immunoblot/analysis/of,
30:u:tok:3:-1:analysis/of/patient,
33:u:tok:3:+0:of/patient/fibroblasts,
19:u:tok:1:-2:analysis,
18:u:tok:1:+0:patient,
22:u:tok:1:+1:fibroblasts,
17:u:tok:1:+2:showed,
21:u:tok:2:-1:of/patient,
30:u:tok:2:+0:patient/fibroblasts,
30:u:tok:3:-2:analysis/of/patient,
33:u:tok:3:-1:of/patient/fibroblasts,
37:u:tok:3:+0:patient/fibroblasts/showed,
18:u:tok:1:-1:patient,
22:u:tok:1:+0:fibroblasts,
17:u:tok:1:+1:showed,
18:u:tok:1:+2:absence,
30:u:tok:2:-1:patient/fibroblasts,
29:u:tok:2:+0:fibroblasts/showed,
33:u:tok:3:-2:of/patient/fibroblasts,
37:u:tok:3:-1:patient/fibroblasts/showed,
37:u:tok:3:+0:fibroblasts/showed/absence,
15:u:pre:1:+0:2:fi,
18:u:tok:1:-2:patient,
22:u:tok:1:-1:fibroblasts,
17:u:tok:1:+0:showed,
18:u:tok:1:+1:absence,
29:u:tok:2:-1:fibroblasts/showed,
25:u:tok:2:+0:showed/absence,
37:u:tok:3:-2:patient/fibroblasts/showed,
37:u:tok:3:-1:fibroblasts/showed/absence,
28:u:tok:3:+0:showed/absence/of,
15:u:pre:1:+0:2:sh,
22:u:tok:1:-2:fibroblasts,
17:u:tok:1:-1:showed,
18:u:tok:1:+0:absence,
25:u:tok:2:-1:showed/absence,
21:u:tok:2:+0:absence/of,
37:u:tok:3:-2:fibroblasts/showed/absence,
28:u:tok:3:-1:showed/absence/of,
25:u:tok:3:+0:absence/of/the,
15:u:pre:1:+0:2:ab,
15:u:suf:1:+0:2:ce,
17:u:tok:1:-2:showed,
18:u:tok:1:-1:absence,
21:u:tok:2:-1:absence/of,
28:u:tok:3:-2:showed/absence/of,
25:u:tok:3:-1:absence/of/the,
18:u:tok:1:-2:absence,
25:u:tok:3:-2:absence/of/the,
27:u:tok:3:+0:the/clpb/protein,
23:u:tok:2:+0:clpb/protein,
27:u:tok:3:-1:the/clpb/protein,
26:u:tok:3:+0:clpb/protein/in,
23:u:tok:2:-1:clpb/protein,
21:u:tok:2:+0:protein/in,
27:u:tok:3:-2:the/clpb/protein,
26:u:tok:3:-1:clpb/protein/in,
23:u:tok:3:+0:protein/in/4,
21:u:tok:2:-1:protein/in,
26:u:tok:3:-2:clpb/protein/in,
23:u:tok:3:-1:protein/in/4,
20:u:tok:3:+0:in/4/sibs,
17:u:tok:2:+0:4/sibs,
23:u:tok:3:-2:protein/in/4,
20:u:tok:3:-1:in/4/sibs,
19:u:tok:3:+0:4/sibs/,,
15:u:tok:1:+2:born,
17:u:tok:2:-1:4/sibs,
20:u:tok:3:-2:in/4/sibs,
19:u:tok:3:-1:4/sibs/,,
22:u:tok:3:+0:sibs/,/born,
15:u:tok:1:+1:born,
17:u:tok:2:+0:,/born,
19:u:tok:3:-2:4/sibs/,,
22:u:tok:3:-1:sibs/,/born,
20:u:tok:3:+0:,/born/of,
15:u:tok:1:+0:born,
25:u:tok:1:+2:consanguineous,
17:u:tok:2:-1:,/born,
18:u:tok:2:+0:born/of,
22:u:tok:3:-2:sibs/,/born,
20:u:tok:3:-1:,/born/of,
33:u:tok:3:+0:born/of/consanguineous,
15:u:pre:1:+0:2:bo,
15:u:suf:1:+0:2:rn,
15:u:tok:1:-1:born,
25:u:tok:1:+1:consanguineous,
20:u:tok:1:+2:cambodian,
18:u:tok:2:-1:born/of,
28:u:tok:2:+0:of/consanguineous,
20:u:tok:3:-2:,/born/of,
33:u:tok:3:-1:born/of/consanguineous,
38:u:tok:3:+0:of/consanguineous/cambodian,
15:u:tok:1:-2:born,
25:u:tok:1:+0:consanguineous,
20:u:tok:1:+1:cambodian,
18:u:tok:1:+2:parents,
28:u:tok:2:-1:of/consanguineous,
35:u:tok:2:+0:consanguineous/cambodian,
33:u:tok:3:-2:born/of/consanguineous,
38:u:tok:3:-1:of/consanguineous/cambodian,
43:u:tok:3:+0:consanguineous/cambodian/parents,
25:u:tok:1:-1:consanguineous,
20:u:tok:1:+0:cambodian,
18:u:tok:1:+1:parents,
35:u:tok:2:-1:consanguineous/cambodian,
28:u:tok:2:+0:cambodian/parents,
38:u:tok:3:-2:of/consanguineous/cambodian,
43:u:tok:3:-1:consanguineous/cambodian/parents,
30:u:tok:3:+0:cambodian/parents/,,
25:u:tok:1:-2:consanguineous,
20:u:tok:1:-1:cambodian,
18:u:tok:1:+0:parents,
28:u:tok:2:-1:cambodian/parents,
20:u:tok:2:+0:parents/,,
43:u:tok:3:-2:consanguineous/cambodian/parents,
30:u:tok:3:-1:cambodian/parents/,,
25:u:tok:3:+0:parents/,/with,
20:u:tok:1:-2:cambodian,
18:u:tok:1:-1:parents,
20:u:tok:2:-1:parents/,,
30:u:tok:3:-2:cambodian/parents/,,
25:u:tok:3:-1:parents/,/with,
36:u:tok:3:+0:,/with/3-methylglutaconic,
18:u:tok:1:-2:parents,
34:u:tok:2:+0:with/3-methylglutaconic,
25:u:tok:3:-2:parents/,/with,
36:u:tok:3:-1:,/with/3-methylglutaconic,
43:u:tok:3:+0:with/3-methylglutaconic/aciduria,
34:u:tok:2:-1:with/3-methylglutaconic,
36:u:tok:3:-2:,/with/3-methylglutaconic,
43:u:tok:3:-1:with/3-methylglutaconic/aciduria,
43:u:tok:3:-2:with/3-methylglutaconic/aciduria,
22:u:tok:1:+2:capo-chichi,
26:u:tok:3:+0:)/,/capo-chichi,
22:u:tok:1:+1:capo-chichi,
24:u:tok:2:+0:,/capo-chichi,
26:u:tok:3:-1:)/,/capo-chichi,
27:u:tok:3:+0:,/capo-chichi/et,
22:u:tok:1:+0:capo-chichi,
24:u:tok:2:-1:,/capo-chichi,
25:u:tok:2:+0:capo-chichi/et,
26:u:tok:3:-2:)/,/capo-chichi,
27:u:tok:3:-1:,/capo-chichi/et,
28:u:tok:3:+0:capo-chichi/et/al,
15:u:suf:1:+0:2:hi,
22:u:tok:1:-1:capo-chichi,
25:u:tok:2:-1:capo-chichi/et,
27:u:tok:3:-2:,/capo-chichi/et,
28:u:tok:3:-1:capo-chichi/et/al,
22:u:tok:1:-2:capo-chichi,
28:u:tok:3:-2:capo-chichi/et/al,
15:u:tok:1:+2:1-bp,
28:u:tok:3:+0:a/homozygous/1-bp,
15:u:tok:1:+1:1-bp,
19:u:tok:1:+2:deletion,
26:u:tok:2:+0:homozygous/1-bp,
28:u:tok:3:-1:a/homozygous/1-bp,
35:u:tok:3:+0:homozygous/1-bp/deletion,
15:u:tok:1:+0:1-bp,
19:u:tok:1:+1:deletion,
26:u:tok:2:-1:homozygous/1-bp,
24:u:tok:2:+0:1-bp/deletion,
28:u:tok:3:-2:a/homozygous/1-bp,
35:u:tok:3:-1:homozygous/1-bp/deletion,
26:u:tok:3:+0:1-bp/deletion/(,
15:u:pre:1:+0:2:1-,
15:u:suf:1:+0:2:bp,
15:u:tok:1:-1:1-bp,
19:u:tok:1:+0:deletion,
21:u:tok:1:+2:c.1685delt,
24:u:tok:2:-1:1-bp/deletion,
21:u:tok:2:+0:deletion/(,
35:u:tok:3:-2:homozygous/1-bp/deletion,
26:u:tok:3:-1:1-bp/deletion/(,
32:u:tok:3:+0:deletion/(/c.1685delt,
15:u:tok:1:-2:1-bp,
19:u:tok:1:-1:deletion,
21:u:tok:1:+1:c.1685delt,
21:u:tok:2:-1:deletion/(,
23:u:tok:2:+0:(/c.1685delt,
26:u:tok:3:-2:1-bp/deletion/(,
32:u:tok:3:-1:deletion/(/c.1685delt,
25:u:tok:3:+0:(/c.1685delt/,,
19:u:tok:1:-2:deletion,
21:u:tok:1:+0:c.1685delt,
22:u:tok:1:+2:nm_030813.3,
23:u:tok:2:-1:(/c.1685delt,
23:u:tok:2:+0:c.1685delt/,,
32:u:tok:3:-2:deletion/(/c.1685delt,
25:u:tok:3:-1:(/c.1685delt/,,
35:u:tok:3:+0:c.1685delt/,/nm_030813.3,
15:u:suf:1:+0:2:lt,
21:u:tok:1:-1:c.1685delt,
22:u:tok:1:+1:nm_030813.3,
23:u:tok:2:-1:c.1685delt/,,
24:u:tok:2:+0:,/nm_030813.3,
25:u:tok:3:-2:(/c.1685delt/,,
35:u:tok:3:-1:c.1685delt/,/nm_030813.3,
26:u:tok:3:+0:,/nm_030813.3/),
21:u:tok:1:-2:c.1685delt,
22:u:tok:1:+0:nm_030813.3,
24:u:tok:2:-1:,/nm_030813.3,
24:u:tok:2:+0:nm_030813.3/),
35:u:tok:3:-2:c.1685delt/,/nm_030813.3,
26:u:tok:3:-1:,/nm_030813.3/),
27:u:tok:3:+0:nm_030813.3/)/in,
22:u:tok:1:-1:nm_030813.3,
24:u:tok:2:-1:nm_030813.3/),
26:u:tok:3:-2:,/nm_030813.3/),
27:u:tok:3:-1:nm_030813.3/)/in,
22:u:tok:1:-2:nm_030813.3,
27:u:tok:3:-2:nm_030813.3/)/in,
21:u:tok:1:+2:frameshift,
26:u:tok:3:+0:in/a/frameshift,
21:u:tok:1:+1:frameshift,
23:u:tok:2:+0:a/frameshift,
26:u:tok:3:-1:in/a/frameshift,
27:u:tok:3:+0:a/frameshift/and,
21:u:tok:1:+0:frameshift,
20:u:tok:1:+2:premature,
23:u:tok:2:-1:a/frameshift,
25:u:tok:2:+0:frameshift/and,
26:u:tok:3:-2:in/a/frameshift,
27:u:tok:3:-1:a/frameshift/and,
35:u:tok:3:+0:frameshift/and/premature,
15:u:suf:1:+0:2:ft,
21:u:tok:1:-1:frameshift,
20:u:tok:1:+1:premature,
22:u:tok:1:+2:termination,
25:u:tok:2:-1:frameshift/and,
24:u:tok:2:+0:and/premature,
27:u:tok:3:-2:a/frameshift/and,
35:u:tok:3:-1:frameshift/and/premature,
36:u:tok:3:+0:and/premature/termination,
21:u:tok:1:-2:frameshift,
20:u:tok:1:+0:premature,
22:u:tok:1:+1:termination,
24:u:tok:2:-1:and/premature,
32:u:tok:2:+0:premature/termination,
35:u:tok:3:-2:frameshift/and/premature,
36:u:tok:3:-1:and/premature/termination,
34:u:tok:3:+0:premature/termination/(,
20:u:tok:1:-1:premature,
22:u:tok:1:+0:termination,
27:u:tok:1:+2:ile562thrfster23,
32:u:tok:2:-1:premature/termination,
24:u:tok:2:+0:termination/(,
36:u:tok:3:-2:and/premature/termination,
34:u:tok:3:-1:premature/termination/(,
41:u:tok:3:+0:termination/(/ile562thrfster23,
15:u:pre:1:+0:2:te,
20:u:tok:1:-2:premature,
22:u:tok:1:-1:termination,
27:u:tok:1:+1:ile562thrfster23,
24:u:tok:2:-1:termination/(,
29:u:tok:2:+0:(/ile562thrfster23,
34:u:tok:3:-2:premature/termination/(,
41:u:tok:3:-1:termination/(/ile562thrfster23,
31:u:tok:3:+0:(/ile562thrfster23/),
22:u:tok:1:-2:termination,
27:u:tok:1:+0:ile562thrfster23,
29:u:tok:2:-1:(/ile562thrfster23,
29:u:tok:2:+0:ile562thrfster23/),
41:u:tok:3:-2:termination/(/ile562thrfster23,
31:u:tok:3:-1:(/ile562thrfster23/),
31:u:tok:3:+0:ile562thrfster23/)/.,
15:u:pre:1:+0:2:il,
15:u:suf:1:+0:2:23,
27:u:tok:1:-1:ile562thrfster23,
29:u:tok:2:-1:ile562thrfster23/),
14:u:tok:2:+0:)/.,
31:u:tok:3:-2:(/ile562thrfster23/),
31:u:tok:3:-1:ile562thrfster23/)/.,
19:u:tok:3:+0:)/./_x+1,
27:u:tok:1:-2:ile562thrfster23,
14:u:tok:2:-1:)/.,
31:u:tok:3:-2:ile562thrfster23/)/.,
19:u:tok:3:-1:)/./_x+1,
27:u:tok:3:+0:the/mutation/was,
27:u:tok:3:-1:the/mutation/was,
27:u:tok:3:-2:the/mutation/was,
21:u:tok:3:+0:found/by/a,
22:u:tok:1:+2:combination,
15:u:tok:2:+0:by/a,
21:u:tok:3:-1:found/by/a,
27:u:tok:3:+0:by/a/combination,
22:u:tok:1:+1:combination,
15:u:tok:2:-1:by/a,
24:u:tok:2:+0:a/combination,
21:u:tok:3:-2:found/by/a,
27:u:tok:3:-1:by/a/combination,
27:u:tok:3:+0:a/combination/of,
22:u:tok:1:+0:combination,
24:u:tok:2:-1:a/combination,
25:u:tok:2:+0:combination/of,
27:u:tok:3:-2:by/a/combination,
27:u:tok:3:-1:a/combination/of,
38:u:tok:3:+0:combination/of/homozygosity,
22:u:tok:1:-1:combination,
25:u:tok:2:-1:combination/of,
26:u:tok:2:+0:of/homozygosity,
27:u:tok:3:-2:a/combination/of,
38:u:tok:3:-1:combination/of/homozygosity,
34:u:tok:3:+0:of/homozygosity/mapping,
22:u:tok:1:-2:combination,
26:u:tok:2:-1:of/homozygosity,
38:u:tok:3:-2:combination/of/homozygosity,
34:u:tok:3:-1:of/homozygosity/mapping,
34:u:tok:3:-2:of/homozygosity/mapping,
28:u:tok:3:+0:mapping/and/exome,
20:u:tok:2:+0:and/exome,
28:u:tok:3:-1:mapping/and/exome,
31:u:tok:3:+0:and/exome/sequencing,
20:u:tok:2:-1:and/exome,
27:u:tok:2:+0:exome/sequencing,
28:u:tok:3:-2:mapping/and/exome,
31:u:tok:3:-1:and/exome/sequencing,
31:u:tok:3:+0:exome/sequencing/and,
27:u:tok:2:-1:exome/sequencing,
25:u:tok:2:+0:sequencing/and,
31:u:tok:3:-2:and/exome/sequencing,
31:u:tok:3:-1:exome/sequencing/and,
29:u:tok:3:+0:sequencing/and/was,
20:u:tok:1:+2:confirmed,
25:u:tok:2:-1:sequencing/and,
18:u:tok:2:+0:and/was,
31:u:tok:3:-2:exome/sequencing/and,
29:u:tok:3:-1:sequencing/and/was,
28:u:tok:3:+0:and/was/confirmed,
20:u:tok:1:+1:confirmed,
18:u:tok:2:-1:and/was,
24:u:tok:2:+0:was/confirmed,
29:u:tok:3:-2:sequencing/and/was,
28:u:tok:3:-1:and/was/confirmed,
27:u:tok:3:+0:was/confirmed/by,
20:u:tok:1:+0:confirmed,
17:u:tok:1:+2:sanger,
24:u:tok:2:-1:was/confirmed,
23:u:tok:2:+0:confirmed/by,
28:u:tok:3:-2:and/was/confirmed,
27:u:tok:3:-1:was/confirmed/by,
30:u:tok:3:+0:confirmed/by/sanger,
20:u:tok:1:-1:confirmed,
17:u:tok:1:+1:sanger,
23:u:tok:2:-1:confirmed/by,
20:u:tok:2:+0:by/sanger,
27:u:tok:3:-2:was/confirmed/by,
30:u:tok:3:-1:confirmed/by/sanger,
31:u:tok:3:+0:by/sanger/sequencing,
20:u:tok:1:-2:confirmed,
17:u:tok:1:+0:sanger,
20:u:tok:2:-1:by/sanger,
28:u:tok:2:+0:sanger/sequencing,
30:u:tok:3:-2:confirmed/by/sanger,
31:u:tok:3:-1:by/sanger/sequencing,
30:u:tok:3:+0:sanger/sequencing/.,
17:u:tok:1:-1:sanger,
28:u:tok:2:-1:sanger/sequencing,
23:u:tok:2:+0:sequencing/.,
31:u:tok:3:-2:by/sanger/sequencing,
30:u:tok:3:-1:sanger/sequencing/.,
28:u:tok:3:+0:sequencing/./_x+1,
17:u:tok:1:-2:sanger,
23:u:tok:2:-1:sequencing/.,
30:u:tok:3:-2:sanger/sequencing/.,
28:u:tok:3:-1:sequencing/./_x+1,
13:u:tok:1:+0:it,
18:u:tok:2:-1:_x-1/it,
24:u:tok:2:+0:it/segregated,
23:u:tok:3:-2:_x-2/_x-1/it,
29:u:tok:3:-1:_x-1/it/segregated,
29:u:tok:3:+0:it/segregated/with,
15:u:pre:1:+0:2:it,
15:u:suf:1:+0:2:it,
13:u:tok:1:-1:it,
24:u:tok:2:-1:it/segregated,
29:u:tok:3:-2:_x-1/it/segregated,
29:u:tok:3:-1:it/segregated/with,
13:u:tok:1:-2:it,
29:u:tok:3:-2:it/segregated/with,
26:u:tok:3:+0:disorder/in/the,
17:u:tok:1:+2:family,
26:u:tok:3:-1:disorder/in/the,
24:u:tok:3:+0:in/the/family,
17:u:tok:1:+1:family,
21:u:tok:2:+0:the/family,
26:u:tok:3:-2:disorder/in/the,
24:u:tok:3:-1:in/the/family,
25:u:tok:3:+0:the/family/and,
17:u:tok:1:+0:family,
21:u:tok:2:-1:the/family,
21:u:tok:2:+0:family/and,
24:u:tok:3:-2:in/the/family,
25:u:tok:3:-1:the/family/and,
25:u:tok:3:+0:family/and/was,
17:u:tok:1:-1:family,
21:u:tok:2:-1:family/and,
25:u:tok:3:-2:the/family/and,
25:u:tok:3:-1:family/and/was,
22:u:tok:3:+0:and/was/not,
17:u:tok:1:-2:family,
25:u:tok:3:-2:family/and/was,
22:u:tok:3:-1:and/was/not,
22:u:tok:3:-2:and/was/not,
23:u:tok:3:+0:found/in/the,
16:u:tok:1:+2:dbsnp,
23:u:tok:3:-1:found/in/the,
23:u:tok:3:+0:in/the/dbsnp,
16:u:tok:1:+1:dbsnp,
20:u:tok:2:+0:the/dbsnp,
23:u:tok:3:-2:found/in/the,
23:u:tok:3:-1:in/the/dbsnp,
22:u:tok:3:+0:the/dbsnp/,,
16:u:tok:1:+0:dbsnp,
15:u:tok:1:+2:1000,
20:u:tok:2:-1:the/dbsnp,
18:u:tok:2:+0:dbsnp/,,
23:u:tok:3:-2:in/the/dbsnp,
22:u:tok:3:-1:the/dbsnp/,,
23:u:tok:3:+0:dbsnp/,/1000,
15:u:pre:1:+0:2:db,
15:u:suf:1:+0:2:np,
16:u:tok:1:-1:dbsnp,
15:u:tok:1:+1:1000,
18:u:tok:1:+2:genomes,
18:u:tok:2:-1:dbsnp/,,
17:u:tok:2:+0:,/1000,
22:u:tok:3:-2:the/dbsnp/,,
23:u:tok:3:-1:dbsnp/,/1000,
25:u:tok:3:+0:,/1000/genomes,
16:u:tok:1:-2:dbsnp,
15:u:tok:1:+0:1000,
18:u:tok:1:+1:genomes,
18:u:tok:1:+2:project,
17:u:tok:2:-1:,/1000,
23:u:tok:2:+0:1000/genomes,
23:u:tok:3:-2:dbsnp/,/1000,
25:u:tok:3:-1:,/1000/genomes,
31:u:tok:3:+0:1000/genomes/project,
15:u:pre:1:+0:2:10,
15:u:suf:1:+0:2:00,
15:u:tok:1:-1:1000,
18:u:tok:1:+0:genomes,
18:u:tok:1:+1:project,
23:u:tok:2:-1:1000/genomes,
26:u:tok:2:+0:genomes/project,
25:u:tok:3:-2:,/1000/genomes,
31:u:tok:3:-1:1000/genomes/project,
28:u:tok:3:+0:genomes/project/,,
15:u:tok:1:-2:1000,
18:u:tok:1:-1:genomes,
18:u:tok:1:+0:project,
26:u:tok:2:-1:genomes/project,
20:u:tok:2:+0:project/,,
31:u:tok:3:-2:1000/genomes/project,
28:u:tok:3:-1:genomes/project/,,
23:u:tok:3:+0:project/,/or,
15:u:suf:1:+0:2:ct,
18:u:tok:1:-2:genomes,
18:u:tok:1:-1:project,
20:u:tok:2:-1:project/,,
15:u:tok:2:+0:,/or,
28:u:tok:3:-2:genomes/project/,,
23:u:tok:3:-1:project/,/or,
21:u:tok:3:+0:,/or/exome,
18:u:tok:1:-2:project,
15:u:tok:2:-1:,/or,
19:u:tok:2:+0:or/exome,
23:u:tok:3:-2:project/,/or,
21:u:tok:3:-1:,/or/exome,
30:u:tok:3:+0:or/exome/sequencing,
19:u:tok:2:-1:or/exome,
21:u:tok:3:-2:,/or/exome,
30:u:tok:3:-1:or/exome/sequencing,
35:u:tok:3:+0:exome/sequencing/project,
20:u:tok:1:+2:databases,
29:u:tok:2:+0:sequencing/project,
30:u:tok:3:-2:or/exome/sequencing,
35:u:tok:3:-1:exome/sequencing/project,
39:u:tok:3:+0:sequencing/project/databases,
20:u:tok:1:+1:databases,
29:u:tok:2:-1:sequencing/project,
28:u:tok:2:+0:project/databases,
35:u:tok:3:-2:exome/sequencing/project,
39:u:tok:3:-1:sequencing/project/databases,
30:u:tok:3:+0:project/databases/,,
20:u:tok:1:+0:databases,
28:u:tok:2:-1:project/databases,
22:u:tok:2:+0:databases/,,
39:u:tok:3:-2:sequencing/project/databases,
30:u:tok:3:-1:project/databases/,,
25:u:tok:3:+0:databases/,/or,
20:u:tok:1:-1:databases,
22:u:tok:2:-1:databases/,,
30:u:tok:3:-2:project/databases/,,
25:u:tok:3:-1:databases/,/or,
18:u:tok:3:+0:,/or/in,
20:u:tok:1:-2:databases,
14:u:tok:1:+2:657,
25:u:tok:3:-2:databases/,/or,
18:u:tok:3:-1:,/or/in,
20:u:tok:3:+0:or/in/657,
14:u:tok:1:+1:657,
19:u:tok:1:+2:in-house,
17:u:tok:2:+0:in/657,
18:u:tok:3:-2:,/or/in,
20:u:tok:3:-1:or/in/657,
26:u:tok:3:+0:in/657/in-house,
14:u:tok:1:+0:657,
19:u:tok:1:+1:in-house,
17:u:tok:2:-1:in/657,
23:u:tok:2:+0:657/in-house,
20:u:tok:3:-2:or/in/657,
26:u:tok:3:-1:in/657/in-house,
31:u:tok:3:+0:657/in-house/control,
15:u:pre:1:+0:2:65,
15:u:suf:1:+0:2:57,
14:u:tok:1:-1:657,
19:u:tok:1:+0:in-house,
17:u:tok:1:+2:exomes,
23:u:tok:2:-1:657/in-house,
27:u:tok:2:+0:in-house/control,
26:u:tok:3:-2:in/657/in-house,
31:u:tok:3:-1:657/in-house/control,
34:u:tok:3:+0:in-house/control/exomes,
14:u:tok:1:-2:657,
19:u:tok:1:-1:in-house,
17:u:tok:1:+1:exomes,
27:u:tok:2:-1:in-house/control,
25:u:tok:2:+0:control/exomes,
31:u:tok:3:-2:657/in-house/control,
34:u:tok:3:-1:in-house/control/exomes,
27:u:tok:3:+0:control/exomes/.,
19:u:tok:1:-2:in-house,
17:u:tok:1:+0:exomes,
25:u:tok:2:-1:control/exomes,
19:u:tok:2:+0:exomes/.,
34:u:tok:3:-2:in-house/control/exomes,
27:u:tok:3:-1:control/exomes/.,
24:u:tok:3:+0:exomes/./_x+1,
17:u:tok:1:-1:exomes,
19:u:tok:2:-1:exomes/.,
27:u:tok:3:-2:control/exomes/.,
24:u:tok:3:-1:exomes/./_x+1,
23:u:tok:2:+0:the/patients,
28:u:tok:3:-1:_x-1/the/patients,
27:u:tok:3:+0:the/patients/had,
23:u:tok:2:-1:the/patients,
23:u:tok:2:+0:patients/had,
28:u:tok:3:-2:_x-1/the/patients,
27:u:tok:3:-1:the/patients/had,
25:u:tok:3:+0:patients/had/a,
23:u:tok:2:-1:patients/had,
27:u:tok:3:-2:the/patients/had,
25:u:tok:3:-1:patients/had/a,
23:u:tok:3:+0:had/a/severe,
20:u:tok:1:+2:phenotype,
19:u:tok:2:+0:a/severe,
25:u:tok:3:-2:patients/had/a,
23:u:tok:3:-1:had/a/severe,
29:u:tok:3:+0:a/severe/phenotype,
20:u:tok:1:+1:phenotype,
19:u:tok:2:-1:a/severe,
27:u:tok:2:+0:severe/phenotype,
23:u:tok:3:-2:had/a/severe,
29:u:tok:3:-1:a/severe/phenotype,
29:u:tok:3:+0:severe/phenotype/:,
20:u:tok:1:+0:phenotype,
27:u:tok:2:-1:severe/phenotype,
22:u:tok:2:+0:phenotype/:,
29:u:tok:3:-2:a/severe/phenotype,
29:u:tok:3:-1:severe/phenotype/:,
25:u:tok:3:+0:phenotype/:/at,
15:u:pre:1:+0:2:ph,
20:u:tok:1:-1:phenotype,
16:u:tok:1:+2:birth,
22:u:tok:2:-1:phenotype/:,
15:u:tok:2:+0::/at,
29:u:tok:3:-2:severe/phenotype/:,
25:u:tok:3:-1:phenotype/:/at,
21:u:tok:3:+0::/at/birth,
20:u:tok:1:-2:phenotype,
16:u:tok:1:+1:birth,
15:u:tok:1:+2:they,
15:u:tok:2:-1::/at,
19:u:tok:2:+0:at/birth,
25:u:tok:3:-2:phenotype/:/at,
21:u:tok:3:-1::/at/birth,
24:u:tok:3:+0:at/birth/they,
16:u:tok:1:+0:birth,
15:u:tok:1:+1:they,
14:u:tok:1:+2:did,
19:u:tok:2:-1:at/birth,
21:u:tok:2:+0:birth/they,
21:u:tok:3:-2::/at/birth,
24:u:tok:3:-1:at/birth/they,
25:u:tok:3:+0:birth/they/did,
15:u:pre:1:+0:2:bi,
16:u:tok:1:-1:birth,
15:u:tok:1:+0:they,
14:u:tok:1:+1:did,
21:u:tok:2:-1:birth/they,
19:u:tok:2:+0:they/did,
24:u:tok:3:-2:at/birth/they,
25:u:tok:3:-1:birth/they/did,
23:u:tok:3:+0:they/did/not,
15:u:suf:1:+0:2:ey,
16:u:tok:1:-2:birth,
15:u:tok:1:-1:they,
14:u:tok:1:+0:did,
15:u:tok:1:+2:move,
19:u:tok:2:-1:they/did,
18:u:tok:2:+0:did/not,
25:u:tok:3:-2:birth/they/did,
23:u:tok:3:-1:they/did/not,
23:u:tok:3:+0:did/not/move,
15:u:suf:1:+0:2:id,
15:u:tok:1:-2:they,
14:u:tok:1:-1:did,
15:u:tok:1:+1:move,
18:u:tok:2:-1:did/not,
19:u:tok:2:+0:not/move,
23:u:tok:3:-2:they/did/not,
23:u:tok:3:-1:did/not/move,
22:u:tok:3:+0:not/move/or,
14:u:tok:1:-2:did,
15:u:tok:1:+0:move,
18:u:tok:1:+2:breathe,
19:u:tok:2:-1:not/move,
18:u:tok:2:+0:move/or,
23:u:tok:3:-2:did/not/move,
22:u:tok:3:-1:not/move/or,
26:u:tok:3:+0:move/or/breathe,
15:u:tok:1:-1:move,
18:u:tok:1:+1:breathe,
24:u:tok:1:+2:spontaneously,
18:u:tok:2:-1:move/or,
21:u:tok:2:+0:or/breathe,
22:u:tok:3:-2:not/move/or,
26:u:tok:3:-1:move/or/breathe,
35:u:tok:3:+0:or/breathe/spontaneously,
15:u:tok:1:-2:move,
18:u:tok:1:+0:breathe,
24:u:tok:1:+1:spontaneously,
21:u:tok:2:-1:or/breathe,
32:u:tok:2:+0:breathe/spontaneously,
26:u:tok:3:-2:move/or/breathe,
35:u:tok:3:-1:or/breathe/spontaneously,
36:u:tok:3:+0:breathe/spontaneously/and,
15:u:pre:1:+0:2:br,
18:u:tok:1:-1:breathe,
24:u:tok:1:+0:spontaneously,
32:u:tok:2:-1:breathe/spontaneously,
28:u:tok:2:+0:spontaneously/and,
35:u:tok:3:-2:or/breathe/spontaneously,
36:u:tok:3:-1:breathe/spontaneously/and,
35:u:tok:3:+0:spontaneously/and/showed,
15:u:pre:1:+0:2:sp,
18:u:tok:1:-2:breathe,
24:u:tok:1:-1:spontaneously,
20:u:tok:1:+2:sustained,
28:u:tok:2:-1:spontaneously/and,
21:u:tok:2:+0:and/showed,
36:u:tok:3:-2:breathe/spontaneously/and,
35:u:tok:3:-1:spontaneously/and/showed,
31:u:tok:3:+0:and/showed/sustained,
24:u:tok:1:-2:spontaneously,
20:u:tok:1:+1:sustained,
17:u:tok:1:+2:clonic,
21:u:tok:2:-1:and/showed,
27:u:tok:2:+0:showed/sustained,
35:u:tok:3:-2:spontaneously/and/showed,
31:u:tok:3:-1:and/showed/sustained,
34:u:tok:3:+0:showed/sustained/clonic,
20:u:tok:1:+0:sustained,
17:u:tok:1:+1:clonic,
20:u:tok:1:+2:movements,
27:u:tok:2:-1:showed/sustained,
27:u:tok:2:+0:sustained/clonic,
31:u:tok:3:-2:and/showed/sustained,
34:u:tok:3:-1:showed/sustained/clonic,
37:u:tok:3:+0:sustained/clonic/movements,
20:u:tok:1:-1:sustained,
17:u:tok:1:+0:clonic,
20:u:tok:1:+1:movements,
18:u:tok:1:+2:induced,
27:u:tok:2:-1:sustained/clonic,
27:u:tok:2:+0:clonic/movements,
34:u:tok:3:-2:showed/sustained/clonic,
37:u:tok:3:-1:sustained/clonic/movements,
35:u:tok:3:+0:clonic/movements/induced,
20:u:tok:1:-2:sustained,
17:u:tok:1:-1:clonic,
20:u:tok:1:+0:movements,
18:u:tok:1:+1:induced,
27:u:tok:2:-1:clonic/movements,
28:u:tok:2:+0:movements/induced,
37:u:tok:3:-2:sustained/clonic/movements,
35:u:tok:3:-1:clonic/movements/induced,
31:u:tok:3:+0:movements/induced/by,
17:u:tok:1:-2:clonic,
20:u:tok:1:-1:movements,
18:u:tok:1:+0:induced,
18:u:tok:1:+2:minimal,
28:u:tok:2:-1:movements/induced,
21:u:tok:2:+0:induced/by,
35:u:tok:3:-2:clonic/movements/induced,
31:u:tok:3:-1:movements/induced/by,
29:u:tok:3:+0:induced/by/minimal,
20:u:tok:1:-2:movements,
18:u:tok:1:-1:induced,
18:u:tok:1:+1:minimal,
18:u:tok:1:+2:tactile,
21:u:tok:2:-1:induced/by,
21:u:tok:2:+0:by/minimal,
31:u:tok:3:-2:movements/induced/by,
29:u:tok:3:-1:induced/by/minimal,
29:u:tok:3:+0:by/minimal/tactile,
18:u:tok:1:-2:induced,
18:u:tok:1:+0:minimal,
18:u:tok:1:+1:tactile,
22:u:tok:1:+2:stimulation,
21:u:tok:2:-1:by/minimal,
26:u:tok:2:+0:minimal/tactile,
29:u:tok:3:-2:induced/by/minimal,
29:u:tok:3:-1:by/minimal/tactile,
38:u:tok:3:+0:minimal/tactile/stimulation,
18:u:tok:1:-1:minimal,
18:u:tok:1:+0:tactile,
22:u:tok:1:+1:stimulation,
26:u:tok:2:-1:minimal/tactile,
30:u:tok:2:+0:tactile/stimulation,
29:u:tok:3:-2:by/minimal/tactile,
38:u:tok:3:-1:minimal/tactile/stimulation,
32:u:tok:3:+0:tactile/stimulation/;,
15:u:pre:1:+0:2:ta,
18:u:tok:1:-2:minimal,
18:u:tok:1:-1:tactile,
22:u:tok:1:+0:stimulation,
30:u:tok:2:-1:tactile/stimulation,
24:u:tok:2:+0:stimulation/;,
38:u:tok:3:-2:minimal/tactile/stimulation,
32:u:tok:3:-1:tactile/stimulation/;,
28:u:tok:3:+0:stimulation/;/all,
18:u:tok:1:-2:tactile,
22:u:tok:1:-1:stimulation,
24:u:tok:2:-1:stimulation/;,
32:u:tok:3:-2:tactile/stimulation/;,
28:u:tok:3:-1:stimulation/;/all,
21:u:tok:3:+0:;/all/were,
22:u:tok:1:-2:stimulation,
31:u:tok:1:+2:ventilator-dependent,
19:u:tok:2:+0:all/were,
28:u:tok:3:-2:stimulation/;/all,
21:u:tok:3:-1:;/all/were,
40:u:tok:3:+0:all/were/ventilator-dependent,
31:u:tok:1:+1:ventilator-dependent,
19:u:tok:2:-1:all/were,
36:u:tok:2:+0:were/ventilator-dependent,
21:u:tok:3:-2:;/all/were,
40:u:tok:3:-1:all/were/ventilator-dependent,
40:u:tok:3:+0:were/ventilator-dependent/and,
31:u:tok:1:+0:ventilator-dependent,
15:u:tok:1:+2:died,
36:u:tok:2:-1:were/ventilator-dependent,
35:u:tok:2:+0:ventilator-dependent/and,
40:u:tok:3:-2:all/were/ventilator-dependent,
40:u:tok:3:-1:were/ventilator-dependent/and,
40:u:tok:3:+0:ventilator-dependent/and/died,
15:u:pre:1:+0:2:ve,
31:u:tok:1:-1:ventilator-dependent,
15:u:tok:1:+1:died,
35:u:tok:2:-1:ventilator-dependent/and,
19:u:tok:2:+0:and/died,
40:u:tok:3:-2:were/ventilator-dependent/and,
40:u:tok:3:-1:ventilator-dependent/and/died,
22:u:tok:3:+0:and/died/in,
31:u:tok:1:-2:ventilator-dependent,
15:u:tok:1:+0:died,
19:u:tok:2:-1:and/died,
18:u:tok:2:+0:died/in,
40:u:tok:3:-2:ventilator-dependent/and/died,
22:u:tok:3:-1:and/died/in,
22:u:tok:3:+0:died/in/the,
15:u:tok:1:-1:died,
16:u:tok:1:+2:first,
18:u:tok:2:-1:died/in,
22:u:tok:3:-2:and/died/in,
22:u:tok:3:-1:died/in/the,
23:u:tok:3:+0:in/the/first,
15:u:tok:1:-2:died,
16:u:tok:1:+1:first,
15:u:tok:1:+2:week,
20:u:tok:2:+0:the/first,
22:u:tok:3:-2:died/in/the,
23:u:tok:3:-1:in/the/first,
25:u:tok:3:+0:the/first/week,
16:u:tok:1:+0:first,
15:u:tok:1:+1:week,
20:u:tok:2:-1:the/first,
21:u:tok:2:+0:first/week,
23:u:tok:3:-2:in/the/first,
25:u:tok:3:-1:the/first/week,
24:u:tok:3:+0:first/week/of,
15:u:suf:1:+0:2:st,
16:u:tok:1:-1:first,
15:u:tok:1:+0:week,
15:u:tok:1:+2:life,
21:u:tok:2:-1:first/week,
18:u:tok:2:+0:week/of,
25:u:tok:3:-2:the/first/week,
24:u:tok:3:-1:first/week/of,
23:u:tok:3:+0:week/of/life,
15:u:suf:1:+0:2:ek,
16:u:tok:1:-2:first,
15:u:tok:1:-1:week,
15:u:tok:1:+1:life,
16:u:tok:1:+2:after,
18:u:tok:2:-1:week/of,
18:u:tok:2:+0:of/life,
24:u:tok:3:-2:first/week/of,
23:u:tok:3:-1:week/of/life,
24:u:tok:3:+0:of/life/after,
15:u:tok:1:-2:week,
15:u:tok:1:+0:life,
16:u:tok:1:+1:after,
18:u:tok:1:+2:removal,
18:u:tok:2:-1:of/life,
21:u:tok:2:+0:life/after,
23:u:tok:3:-2:week/of/life,
24:u:tok:3:-1:of/life/after,
29:u:tok:3:+0:life/after/removal,
15:u:suf:1:+0:2:fe,
15:u:tok:1:-1:life,
16:u:tok:1:+0:after,
18:u:tok:1:+1:removal,
21:u:tok:2:-1:life/after,
24:u:tok:2:+0:after/removal,
24:u:tok:3:-2:of/life/after,
29:u:tok:3:-1:life/after/removal,
27:u:tok:3:+0:after/removal/of,
15:u:pre:1:+0:2:af,
15:u:tok:1:-2:life,
16:u:tok:1:-1:after,
18:u:tok:1:+0:removal,
22:u:tok:1:+2:respiratory,
24:u:tok:2:-1:after/removal,
21:u:tok:2:+0:removal/of,
29:u:tok:3:-2:life/after/removal,
27:u:tok:3:-1:after/removal/of,
33:u:tok:3:+0:removal/of/respiratory,
16:u:tok:1:-2:after,
18:u:tok:1:-1:removal,
22:u:tok:1:+1:respiratory,
18:u:tok:1:+2:support,
21:u:tok:2:-1:removal/of,
25:u:tok:2:+0:of/respiratory,
27:u:tok:3:-2:after/removal/of,
33:u:tok:3:-1:removal/of/respiratory,
33:u:tok:3:+0:of/respiratory/support,
18:u:tok:1:-2:removal,
22:u:tok:1:+0:respiratory,
18:u:tok:1:+1:support,
25:u:tok:2:-1:of/respiratory,
30:u:tok:2:+0:respiratory/support,
33:u:tok:3:-2:removal/of/respiratory,
33:u:tok:3:-1:of/respiratory/support,
32:u:tok:3:+0:respiratory/support/.,
15:u:suf:1:+0:2:ry,
22:u:tok:1:-1:respiratory,
18:u:tok:1:+0:support,
30:u:tok:2:-1:respiratory/support,
20:u:tok:2:+0:support/.,
33:u:tok:3:-2:of/respiratory/support,
32:u:tok:3:-1:respiratory/support/.,
25:u:tok:3:+0:support/./_x+1,
15:u:suf:1:+0:2:rt,
22:u:tok:1:-2:respiratory,
18:u:tok:1:-1:support,
20:u:tok:2:-1:support/.,
32:u:tok:3:-2:respiratory/support/.,
25:u:tok:3:-1:support/./_x+1,
28:u:tok:1:+1:beta-1-adrenergic,
19:u:tok:1:+2:receptor,
32:u:tok:2:+0:the/beta-1-adrenergic,
37:u:tok:3:-1:_x-1/the/beta-1-adrenergic,
41:u:tok:3:+0:the/beta-1-adrenergic/receptor,
28:u:tok:1:+0:beta-1-adrenergic,
19:u:tok:1:+1:receptor,
32:u:tok:2:-1:the/beta-1-adrenergic,
37:u:tok:2:+0:beta-1-adrenergic/receptor,
37:u:tok:3:-2:_x-1/the/beta-1-adrenergic,
41:u:tok:3:-1:the/beta-1-adrenergic/receptor,
39:u:tok:3:+0:beta-1-adrenergic/receptor/,,
28:u:tok:1:-1:beta-1-adrenergic,
19:u:tok:1:+0:receptor,
37:u:tok:2:-1:beta-1-adrenergic/receptor,
21:u:tok:2:+0:receptor/,,
41:u:tok:3:-2:the/beta-1-adrenergic/receptor,
39:u:tok:3:-1:beta-1-adrenergic/receptor/,,
23:u:tok:3:+0:receptor/,/a,
28:u:tok:1:-2:beta-1-adrenergic,
19:u:tok:1:-1:receptor,
14:u:tok:1:+2:key,
21:u:tok:2:-1:receptor/,,
14:u:tok:2:+0:,/a,
39:u:tok:3:-2:beta-1-adrenergic/receptor/,,
23:u:tok:3:-1:receptor/,/a,
18:u:tok:3:+0:,/a/key,
19:u:tok:1:-2:receptor,
14:u:tok:1:+1:key,
15:u:tok:1:+2:cell,
14:u:tok:2:-1:,/a,
16:u:tok:2:+0:a/key,
23:u:tok:3:-2:receptor/,/a,
18:u:tok:3:-1:,/a/key,
21:u:tok:3:+0:a/key/cell,
14:u:tok:1:+0:key,
15:u:tok:1:+1:cell,
18:u:tok:1:+2:surface,
16:u:tok:2:-1:a/key,
19:u:tok:2:+0:key/cell,
18:u:tok:3:-2:,/a/key,
21:u:tok:3:-1:a/key/cell,
27:u:tok:3:+0:key/cell/surface,
15:u:pre:1:+0:2:ke,
14:u:tok:1:-1:key,
15:u:tok:1:+0:cell,
18:u:tok:1:+1:surface,
20:u:tok:1:+2:signaling,
19:u:tok:2:-1:key/cell,
23:u:tok:2:+0:cell/surface,
21:u:tok:3:-2:a/key/cell,
27:u:tok:3:-1:key/cell/surface,
33:u:tok:3:+0:cell/surface/signaling,
15:u:pre:1:+0:2:ce,
14:u:tok:1:-2:key,
15:u:tok:1:-1:cell,
18:u:tok:1:+0:surface,
20:u:tok:1:+1:signaling,
23:u:tok:2:-1:cell/surface,
28:u:tok:2:+0:surface/signaling,
27:u:tok:3:-2:key/cell/surface,
33:u:tok:3:-1:cell/surface/signaling,
36:u:tok:3:+0:surface/signaling/protein,
15:u:tok:1:-2:cell,
18:u:tok:1:-1:surface,
20:u:tok:1:+0:signaling,
20:u:tok:1:+2:expressed,
